{"learner":{"attributes":{"scikit_learn":"{\"_estimator_type\": \"regressor\"}"},"feature_names":[],"feature_types":[],"gradient_booster":{"model":{"gbtree_model_param":{"num_parallel_tree":"1","num_trees":"100"},"iteration_indptr":[0,1,2,3,4,5,6,7,8,9,10,11,12,13,14,15,16,17,18,19,20,21,22,23,24,25,26,27,28,29,30,31,32,33,34,35,36,37,38,39,40,41,42,43,44,45,46,47,48,49,50,51,52,53,54,55,56,57,58,59,60,61,62,63,64,65,66,67,68,69,70,71,72,73,74,75,76,77,78,79,80,81,82,83,84,85,86,87,88,89,90,91,92,93,94,95,96,97,98,99,100],"tree_info":[0,0,0,0,0,0,0,0,0,0,0,0,0,0,0,0,0,0,0,0,0,0,0,0,0,0,0,0,0,0,0,0,0,0,0,0,0,0,0,0,0,0,0,0,0,0,0,0,0,0,0,0,0,0,0,0,0,0,0,0,0,0,0,0,0,0,0,0,0,0,0,0,0,0,0,0,0,0,0,0,0,0,0,0,0,0,0,0,0,0,0,0,0,0,0,0,0,0,0,0],"trees":[{"base_weights":[-1.1535409E-7,-1.5058831E0,1.1735852E0,-2.1979604E0,-8.364099E-1,3.405801E-1,1.9783301E0,-2.6382751E0,-1.8936931E0,-1.2037158E0,-4.564747E-1,4.9649667E-2,6.990146E-1,1.6008704E0,2.5031962E0,-8.894307E-1,-2.4855642E0,-2.104073E0,-1.7424904E0,-1.3773172E0,-1.0294309E0,-5.777901E-1,-2.6392695E-1,6.3340783E-1,3.7443563E-2,4.8043945E-1,9.051311E-1,1.4133314E0,1.852733E0,2.3676898E0,2.950707E0,-7.745416E-1,-7.030549E-1,-6.481533E-1,-6.0457444E-1,-5.475917E-1,-1.6648654E0,-1.2540923E0,-1.4077609E0,-1.0181214E0,-1.544231E0,-6.677985E-1,-4.77259E-1,-2.8082332E-1,2.5683004E-1,-2.88589E-1,8.1324494E-1,-7.1614566E-3,1.6766909E-1,7.513795E-1,4.5708314E-1,1.0687773E0,8.6763036E-1,1.2890183E0,1.5272905E0,1.7816359E0,5.8669436E-1,2.2515492E0,2.550224E0,2.7896848E0,9.130495E-1,-4.9552128E-1,-6.113371E-1,-3.4619224E-1,-4.177741E-1,-3.826555E-1,-4.3584153E-1,-3.3814618E-1,-2.9417822E-1,9.959071E-2,-4.9087146E-1,-9.572344E-2,-2.1148156E-1,-1.1842405E-1,-1.7242065E-1,-1.2452044E-1,-7.2637565E-2,1.3588582E-1,-7.5335294E-2,1.6509381E-1,-3.657629E-1,2.6328182E-1,-4.2830074E-1,-5.375703E-3,1.505244E-1,-1.5701557E-2,6.5311E-2,3.653254E-1,2.0141193E-1,1.2425404E-1,1.706101E-1,3.506167E-1,2.0359197E-1,2.2367868E-1,2.7353382E-1,3.395871E-1,3.9754063E-1,4.7378778E-1,4.279866E-1,5.503225E-1,5.06941E-1,6.992553E-1,6.591748E-1,7.665651E-1,3.787017E-1,8.40589E-1,4.1403547E-1],"categories":[],"categories_nodes":[],"categories_segments":[],"categories_sizes":[],"default_left":[0,0,1,0,0,1,0,0,0,0,0,0,0,0,0,0,0,0,0,0,1,0,0,1,1,0,0,0,0,0,0,0,0,0,0,0,0,1,0,0,0,0,1,0,1,0,0,1,0,0,1,1,0,0,0,0,0,0,1,1,0,0,0,0,0,0,0,0,0,0,0,0,0,0,0,0,0,0,0,0,0,0,0,0,0,0,0,0,0,0,0,0,0,0,0,0,0,0,0,0,0,0,0,0,0,0,0],"id":0,"left_children":[1,3,5,7,9,11,13,15,17,19,21,23,25,27,29,-1,31,33,35,37,39,41,43,45,47,49,51,53,55,57,59,-1,-1,-1,-1,-1,61,63,65,67,69,71,73,75,77,79,81,83,85,87,89,91,93,95,97,99,-1,101,103,105,-1,-1,-1,-1,-1,-1,-1,-1,-1,-1,-1,-1,-1,-1,-1,-1,-1,-1,-1,-1,-1,-1,-1,-1,-1,-1,-1,-1,-1,-1,-1,-1,-1,-1,-1,-1,-1,-1,-1,-1,-1,-1,-1,-1,-1,-1,-1],"loss_changes":[3.907461E4,4.4850215E3,8.32918E3,6.3285156E2,6.8660645E2,6.368002E2,1.248084E3,8.9506836E1,8.600586E1,7.431323E1,5.6423035E1,2.4003172E1,1.2282727E2,1.7115527E2,1.5322656E2,0E0,1.21328125E1,1.53125E0,7.541992E0,2.9274902E0,5.7229004E0,1.31185E1,8.325485E0,1.1675535E1,1.9193184E1,8.072998E0,7.7072754E0,2.7965332E1,7.9814453E0,3.7356445E1,6.2353516E-1,0E0,0E0,0E0,0E0,0E0,8.4936523E-1,1.9563599E0,4.0738525E0,3.9233398E0,4.8587723E0,9.890167E0,5.4434357E0,4.621773E0,3.1023464E0,1.0039336E1,9.618134E0,1.3487504E1,9.291063E0,3.0629578E0,5.6401978E0,9.266846E0,5.5160522E0,4.268921E0,3.489746E0,1.4458008E0,0E0,2.6513672E-1,1.809082E0,2.0019531E-1,0E0,0E0,0E0,0E0,0E0,0E0,0E0,0E0,0E0,0E0,0E0,0E0,0E0,0E0,0E0,0E0,0E0,0E0,0E0,0E0,0E0,0E0,0E0,0E0,0E0,0E0,0E0,0E0,0E0,0E0,0E0,0E0,0E0,0E0,0E0,0E0,0E0,0E0,0E0,0E0,0E0,0E0,0E0,0E0,0E0,0E0,0E0],"parents":[2147483647,0,0,1,1,2,2,3,3,4,4,5,5,6,6,7,7,8,8,9,9,10,10,11,11,12,12,13,13,14,14,16,16,17,17,18,18,19,19,20,20,21,21,22,22,23,23,24,24,25,25,26,26,27,27,28,28,29,29,30,30,36,36,37,37,38,38,39,39,40,40,41,41,42,42,43,43,44,44,45,45,46,46,47,47,48,48,49,49,50,50,51,51,52,52,53,53,54,54,55,55,57,57,58,58,59,59],"right_children":[2,4,6,8,10,12,14,16,18,20,22,24,26,28,30,-1,32,34,36,38,40,42,44,46,48,50,52,54,56,58,60,-1,-1,-1,-1,-1,62,64,66,68,70,72,74,76,78,80,82,84,86,88,90,92,94,96,98,100,-1,102,104,106,-1,-1,-1,-1,-1,-1,-1,-1,-1,-1,-1,-1,-1,-1,-1,-1,-1,-1,-1,-1,-1,-1,-1,-1,-1,-1,-1,-1,-1,-1,-1,-1,-1,-1,-1,-1,-1,-1,-1,-1,-1,-1,-1,-1,-1,-1,-1],"split_conditions":[4.8312187E0,3.2547193E0,6.1394024E0,2.111534E0,4.0949154E0,5.2567234E0,7.4904637E0,1.1585991E0,2.6385758E0,3.6950965E0,4.5449934E0,3.5762565E0,5.6841283E0,6.8722854E0,8.790701E0,-8.894307E-1,1.8031316E0,2.4321685E0,2.9443808E0,1.5014528E0,7.612716E0,4.3428836E0,6.5E1,2.5840586E-1,5.004543E0,2.0756286E-1,2.7E1,6.482714E0,7.232672E0,8.118155E0,9.08944E0,-7.745416E-1,-7.030549E-1,-6.481533E-1,-6.0457444E-1,-5.475917E-1,6.5E1,6.735535E0,3E0,3.8021374E0,2E1,4.662997E0,6.632146E0,7E0,7.268664E0,5.2136693E0,6.580318E0,7.189937E0,5.230132E0,4.7497725E0,4.298032E0,4.342216E0,5.7983317E0,6E0,2.1E1,7E0,5.8669436E-1,1.2E1,1.36182E1,6.7839165E0,9.130495E-1,-4.9552128E-1,-6.113371E-1,-3.4619224E-1,-4.177741E-1,-3.826555E-1,-4.3584153E-1,-3.3814618E-1,-2.9417822E-1,9.959071E-2,-4.9087146E-1,-9.572344E-2,-2.1148156E-1,-1.1842405E-1,-1.7242065E-1,-1.2452044E-1,-7.2637565E-2,1.3588582E-1,-7.5335294E-2,1.6509381E-1,-3.657629E-1,2.6328182E-1,-4.2830074E-1,-5.375703E-3,1.505244E-1,-1.5701557E-2,6.5311E-2,3.653254E-1,2.0141193E-1,1.2425404E-1,1.706101E-1,3.506167E-1,2.0359197E-1,2.2367868E-1,2.7353382E-1,3.395871E-1,3.9754063E-1,4.7378778E-1,4.279866E-1,5.503225E-1,5.06941E-1,6.992553E-1,6.591748E-1,7.665651E-1,3.787017E-1,8.40589E-1,4.1403547E-1],"split_indices":[0,0,0,0,0,0,0,0,0,0,0,4,0,0,0,0,0,0,0,2,2,0,3,2,0,2,3,0,0,0,0,0,0,0,0,0,3,4,5,0,3,4,4,1,4,0,2,2,4,4,2,2,4,1,1,5,0,1,2,2,0,0,0,0,0,0,0,0,0,0,0,0,0,0,0,0,0,0,0,0,0,0,0,0,0,0,0,0,0,0,0,0,0,0,0,0,0,0,0,0,0,0,0,0,0,0,0],"split_type":[0,0,0,0,0,0,0,0,0,0,0,0,0,0,0,0,0,0,0,0,0,0,0,0,0,0,0,0,0,0,0,0,0,0,0,0,0,0,0,0,0,0,0,0,0,0,0,0,0,0,0,0,0,0,0,0,0,0,0,0,0,0,0,0,0,0,0,0,0,0,0,0,0,0,0,0,0,0,0,0,0,0,0,0,0,0,0,0,0,0,0,0,0,0,0,0,0,0,0,0,0,0,0,0,0,0,0],"sum_hessian":[2.2108E4,9.683E3,1.2425E4,4.76E3,4.923E3,6.106E3,6.319E3,1.942E3,2.818E3,2.502E3,2.421E3,3.371E3,2.735E3,3.678E3,2.641E3,6.13E2,1.329E3,1.173E3,1.645E3,1.25E3,1.252E3,1.484E3,9.37E2,6.8E1,3.303E3,1.329E3,1.406E3,2.112E3,1.566E3,2.032E3,6.09E2,7.82E2,5.47E2,7.03E2,4.7E2,7.85E2,8.6E2,2.56E2,9.94E2,1.228E3,2.4E1,7.8E2,7.04E2,9.08E2,2.9E1,1.1E1,5.7E1,2.461E3,8.42E2,1.03E2,1.226E3,2.57E2,1.149E3,1.016E3,1.096E3,9.37E2,6.29E2,1.25E3,7.82E2,2.34E2,3.75E2,8.36E2,2.4E1,1.54E2,1.02E2,2.6E2,7.34E2,3.07E2,9.21E2,1E0,2.3E1,7.6E1,7.04E2,3.84E2,3.2E2,2.01E2,7.07E2,2.1E1,8E0,6E0,5E0,5.6E1,1E0,2.411E3,5E1,1.56E2,6.86E2,1.3E1,9E1,8.89E2,3.37E2,2.03E2,5.4E1,3.1E2,8.39E2,1.96E2,8.2E2,7.13E2,3.83E2,5.83E2,3.54E2,4.91E2,7.59E2,7.78E2,4E0,2.31E2,3E0],"tree_param":{"num_deleted":"0","num_feature":"6","num_nodes":"107","size_leaf_vector":"1"}},{"base_weights":[4.881707E-5,-1.0550078E0,8.2228994E-1,-1.510735E0,-5.537064E-1,2.5283977E-1,1.4009389E0,-1.848011E0,-1.3008827E0,-8.047589E-1,-3.1055418E-1,8.640985E-2,5.989126E-1,1.1283412E0,1.7449007E0,-2.076787E0,-1.7410061E0,-1.4665818E0,-1.1893405E0,-9.2560333E-1,-7.0603305E-1,-3.8978547E-1,-1.7328876E-1,2.6344473E-2,2.754722E-1,4.284513E-1,6.613295E-1,9.6246237E-1,1.2537848E0,1.6167556E0,1.9930527E0,-6.865833E-1,-6.021055E-1,-5.42476E-1,-1.6417444E0,-1.5132785E0,-1.4043697E0,-1.2443494E0,-1.0959955E0,-8.7398946E-1,-1.0227426E0,-6.779141E-1,-8.328699E-1,-3.0898622E-1,-4.390174E-1,-1.8469107E-1,1.8533394E-1,2.0618774E-1,7.609471E-3,3.3824384E-1,1.4837565E-1,6.200025E-1,3.5992843E-1,5.9962696E-1,7.6565987E-1,9.664014E-1,2.0864964E-1,1.1445693E0,1.314147E0,1.5518014E0,1.7155328E0,5.680435E-1,6.398631E-1,-5.16561E-1,-4.7015697E-1,-4.5683488E-1,-3.655691E-1,-4.705979E-1,-4.0653074E-1,-2.7130687E-1,-3.757446E-1,-3.0918905E-1,-3.4865096E-1,-2.733276E-1,-1.8917473E-1,-2.8664678E-1,-3.8538843E-1,-2.1246007E-1,-1.6307878E-1,-3.7986687E-1,-2.1759516E-1,-9.808264E-2,5.9267092E-2,-1.12550244E-1,-1.5583219E-1,2.0739555E-5,-6.080429E-2,-1.4377509E-1,1.07447974E-1,3.026069E-2,1.5260962E-1,-1.8894123E-1,4.6765055E-3,2.652079E-1,9.5356144E-2,-3.904019E-2,6.447612E-2,2.4035256E-1,1.3762614E-1,1.7072049E-1,9.132745E-2,2.131979E-1,1.5509622E-1,2.0267794E-1,2.685848E-1,3.097487E-1,2.762844E-1,-4.937642E-2,1.6204724E-1,3.656986E-1,2.901846E-1,4.300095E-1,3.828803E-1,4.922016E-1,4.467284E-1,5.1557463E-1,1.2873779E-1],"categories":[],"categories_nodes":[],"categories_segments":[],"categories_sizes":[],"default_left":[0,0,1,0,0,1,0,0,0,0,0,1,0,0,0,0,0,0,0,0,1,0,0,0,0,0,0,1,0,0,0,0,0,0,0,1,0,0,0,0,0,1,0,0,1,0,1,0,0,0,0,1,1,1,1,1,0,0,0,0,1,0,0,0,0,0,0,0,0,0,0,0,0,0,0,0,0,0,0,0,0,0,0,0,0,0,0,0,0,0,0,0,0,0,0,0,0,0,0,0,0,0,0,0,0,0,0,0,0,0,0,0,0,0,0,0,0],"id":1,"left_children":[1,3,5,7,9,11,13,15,17,19,21,23,25,27,29,31,33,35,37,39,41,43,45,47,49,51,53,55,57,59,61,-1,-1,-1,63,65,67,69,71,73,75,77,79,81,83,85,87,89,91,93,95,97,99,101,103,105,107,109,111,113,115,-1,-1,-1,-1,-1,-1,-1,-1,-1,-1,-1,-1,-1,-1,-1,-1,-1,-1,-1,-1,-1,-1,-1,-1,-1,-1,-1,-1,-1,-1,-1,-1,-1,-1,-1,-1,-1,-1,-1,-1,-1,-1,-1,-1,-1,-1,-1,-1,-1,-1,-1,-1,-1,-1,-1,-1],"loss_changes":[1.9180668E4,2.211538E3,4.0941592E3,3.56583E2,2.8134595E2,3.6073514E2,5.7589355E2,4.394922E1,5.610547E1,2.6416748E1,2.5436005E1,4.80404E1,2.1357666E1,7.039551E1,8.336719E1,4.480713E0,5.9091797E0,1.520752E0,8.269043E0,4.205078E0,3.9042358E0,5.775528E0,3.5508785E0,1.08208275E1,8.087433E0,6.969696E0,9.113403E0,4.2106934E0,1.1390625E1,8.893066E0,8.8125E0,0E0,0E0,0E0,5.7507324E-1,1.1645508E-1,2.3422852E0,2.1104736E0,1.8474121E0,5.4852905E0,4.8841553E0,3.8091125E0,9.475235E0,5.2126083E0,4.5344696E0,2.7720776E0,3.2727985E0,9.602295E0,1.48096285E1,7.3086624E0,6.3107724E0,3.8100395E0,4.5396156E0,8.248566E0,5.804596E0,3.48938E0,1.2024844E0,8.110046E0,3.8291016E0,3.670166E0,2.0280762E0,0E0,0E0,0E0,0E0,0E0,0E0,0E0,0E0,0E0,0E0,0E0,0E0,0E0,0E0,0E0,0E0,0E0,0E0,0E0,0E0,0E0,0E0,0E0,0E0,0E0,0E0,0E0,0E0,0E0,0E0,0E0,0E0,0E0,0E0,0E0,0E0,0E0,0E0,0E0,0E0,0E0,0E0,0E0,0E0,0E0,0E0,0E0,0E0,0E0,0E0,0E0,0E0,0E0,0E0,0E0,0E0],"parents":[2147483647,0,0,1,1,2,2,3,3,4,4,5,5,6,6,7,7,8,8,9,9,10,10,11,11,12,12,13,13,14,14,15,15,16,16,17,17,18,18,19,19,20,20,21,21,22,22,23,23,24,24,25,25,26,26,27,27,28,28,29,29,30,30,34,34,35,35,36,36,37,37,38,38,39,39,40,40,41,41,42,42,43,43,44,44,45,45,46,46,47,47,48,48,49,49,50,50,51,51,52,52,53,53,54,54,55,55,56,56,57,57,58,58,59,59,60,60],"right_children":[2,4,6,8,10,12,14,16,18,20,22,24,26,28,30,32,34,36,38,40,42,44,46,48,50,52,54,56,58,60,62,-1,-1,-1,64,66,68,70,72,74,76,78,80,82,84,86,88,90,92,94,96,98,100,102,104,106,108,110,112,114,116,-1,-1,-1,-1,-1,-1,-1,-1,-1,-1,-1,-1,-1,-1,-1,-1,-1,-1,-1,-1,-1,-1,-1,-1,-1,-1,-1,-1,-1,-1,-1,-1,-1,-1,-1,-1,-1,-1,-1,-1,-1,-1,-1,-1,-1,-1,-1,-1,-1,-1,-1,-1,-1,-1,-1,-1],"split_conditions":[4.8312187E0,3.3794243E0,6.190047E0,2.111534E0,4.1201286E0,5.5144935E0,7.450761E0,1.1585991E0,2.6759238E0,3.72612E0,4.5701118E0,5.2136693E0,5.713628E0,6.70907E0,8.464666E0,3.3191982E-1,1.8031316E0,2.4321685E0,3.1203823E0,4.235815E0,4.7789817E0,6.215865E0,6.5E1,4.6030374E0,5.1E1,9E0,6.0120015E0,8.602896E0,6.9610066E0,7.974325E0,9.08944E0,-6.865833E-1,-6.021055E-1,-5.42476E-1,3.0005145E0,6.8894844E0,1.8889767E0,3.6541638E0,6E0,8.83419E0,2.6E1,3.6561906E0,5.030326E0,6.170752E0,3.0912285E0,2.5840586E-1,1.623018E-1,4.3811636E0,4.6915693E0,3.727377E0,5.032288E0,2.5812654E0,4.9170095E-1,2.1877422E0,3.1976504E0,5.861039E0,4E1,7.629561E0,1.5271207E0,1.2E1,1.36182E1,5.680435E-1,6.398631E-1,-5.16561E-1,-4.7015697E-1,-4.5683488E-1,-3.655691E-1,-4.705979E-1,-4.0653074E-1,-2.7130687E-1,-3.757446E-1,-3.0918905E-1,-3.4865096E-1,-2.733276E-1,-1.8917473E-1,-2.8664678E-1,-3.8538843E-1,-2.1246007E-1,-1.6307878E-1,-3.7986687E-1,-2.1759516E-1,-9.808264E-2,5.9267092E-2,-1.12550244E-1,-1.5583219E-1,2.0739555E-5,-6.080429E-2,-1.4377509E-1,1.07447974E-1,3.026069E-2,1.5260962E-1,-1.8894123E-1,4.6765055E-3,2.652079E-1,9.5356144E-2,-3.904019E-2,6.447612E-2,2.4035256E-1,1.3762614E-1,1.7072049E-1,9.132745E-2,2.131979E-1,1.5509622E-1,2.0267794E-1,2.685848E-1,3.097487E-1,2.762844E-1,-4.937642E-2,1.6204724E-1,3.656986E-1,2.901846E-1,4.300095E-1,3.828803E-1,4.922016E-1,4.467284E-1,5.1557463E-1,1.2873779E-1],"split_indices":[0,0,0,0,0,0,0,0,0,0,0,0,0,0,0,0,0,0,0,2,2,4,3,4,3,1,0,2,0,0,0,0,0,0,2,2,2,4,5,4,1,2,2,4,2,2,2,4,4,4,4,2,2,2,2,4,3,4,2,1,2,0,0,0,0,0,0,0,0,0,0,0,0,0,0,0,0,0,0,0,0,0,0,0,0,0,0,0,0,0,0,0,0,0,0,0,0,0,0,0,0,0,0,0,0,0,0,0,0,0,0,0,0,0,0,0,0],"split_type":[0,0,0,0,0,0,0,0,0,0,0,0,0,0,0,0,0,0,0,0,0,0,0,0,0,0,0,0,0,0,0,0,0,0,0,0,0,0,0,0,0,0,0,0,0,0,0,0,0,0,0,0,0,0,0,0,0,0,0,0,0,0,0,0,0,0,0,0,0,0,0,0,0,0,0,0,0,0,0,0,0,0,0,0,0,0,0,0,0,0,0,0,0,0,0,0,0,0,0,0,0,0,0,0,0,0,0,0,0,0,0,0,0,0,0,0,0],"sum_hessian":[2.2108E4,9.683E3,1.2425E4,5.071E3,4.612E3,6.263E3,6.162E3,1.942E3,3.129E3,2.268E3,2.344E3,4.23E3,2.033E3,3.44E3,2.722E3,6.13E2,1.329E3,1.254E3,1.875E3,1.016E3,1.252E3,1.485E3,8.59E2,3.211E3,1.019E3,5.47E2,1.486E3,1.485E3,1.955E3,1.8E3,9.22E2,1.44E2,4.69E2,7.82E2,5.47E2,7.03E2,5.51E2,1.172E3,7.03E2,6.7E2,3.46E2,1.03E3,2.22E2,5.65E2,9.2E2,8.33E2,2.6E1,3.02E2,2.909E3,6.81E2,3.38E2,1.42E2,4.05E2,9.38E2,5.48E2,1.477E3,8E0,7.03E2,1.252E3,1.096E3,7.04E2,5.47E2,3.75E2,2.53E2,2.94E2,6.77E2,2.6E1,1.2E2,4.31E2,3E1,1.142E3,3.62E2,3.41E2,5.79E2,9.1E1,2.79E2,6.7E1,8.37E2,1.93E2,4.2E1,1.8E2,5.46E2,1.9E1,5.16E2,4.04E2,7.4E1,7.59E2,5E0,2.1E1,2.25E2,7.7E1,3.5E1,2.874E3,2.3E1,6.58E2,6.5E1,2.73E2,6.5E1,7.7E1,8.3E1,3.22E2,3.97E2,5.41E2,3.27E2,2.21E2,5.93E2,8.84E2,4E0,4E0,4.91E2,2.12E2,2.93E2,9.59E2,4.43E2,6.53E2,7.02E2,2E0],"tree_param":{"num_deleted":"0","num_feature":"6","num_nodes":"117","size_leaf_vector":"1"}},{"base_weights":[-3.4133584E-5,-7.1417814E-1,5.9780556E-1,-1.0586624E0,-3.6486992E-1,1.8972948E-1,9.766236E-1,-1.3114456E0,-9.2087114E-1,-5.8587086E-1,-2.1344589E-1,8.2479514E-2,4.2771903E-1,7.905944E-1,1.2297381E0,-1.4728234E0,-1.2414945E0,-1.0213139E0,-8.1968397E-1,-6.7617786E-1,-5.3766507E-1,-3.339918E-1,-1.4300837E-1,1.2410208E-2,1.678708E-1,5.580185E-1,3.9863065E-1,6.702114E-1,8.8263583E-1,1.1607081E0,1.4577845E0,-1.6067628E0,-4.258158E-1,-1.3122811E0,-1.1846104E0,-9.143883E-1,-1.0446774E0,-8.096935E-1,-1.1279501E0,-6.903267E-1,-2.2723448E-1,-5.0761634E-1,-6.594901E-1,-4.9422988E-1,-2.8843462E-1,-5.46871E-2,-1.9718437E-1,6.7759156E-2,-7.788641E-2,7.53279E-2,2.2223657E-1,5.789432E-1,-3.4610528E-1,4.8409832E-1,3.540378E-1,7.335993E-1,6.303187E-1,8.202501E-1,9.442771E-1,1.1028174E0,1.2517176E0,4.2326137E-1,4.8156062E-1,-4.8353624E-1,-1.3248271E-1,-3.3178604E-1,-4.017453E-1,-3.6781853E-1,-3.189695E-1,-2.8810656E-1,-1.5673913E-1,-3.2027164E-1,-2.8356192E-1,-2.5143796E-1,-2.1489944E-1,-1.3058625E-1,-3.6434332E-1,-2.3349126E-1,-1.8997413E-1,-1.3682052E-1,7.765131E-2,-2.063356E-1,-1.4700022E-1,1.273115E-1,-2.0342495E-1,-1.7672804E-1,-9.093091E-2,7.416794E-2,-9.0074874E-2,3.6012195E-2,-2.5893936E-2,-4.4675943E-2,-8.419319E-2,2.4757436E-1,1.6584456E-2,-6.363911E-2,4.5043945E-2,-6.1113052E-2,3.0808697E-2,4.178879E-2,8.038414E-2,1.9249497E-1,1.0005429E-1,-2.4671385E-1,1.00729145E-1,1.8961592E-1,1.2179669E-1,1.9549488E-1,9.722357E-2,1.9463427E-1,2.5748697E-1,-4.5578197E-2,1.9209214E-1,2.627385E-1,2.1634205E-1,3.0145735E-1,2.5920385E-1,3.3559185E-1,2.9511702E-1,3.8170147E-1,3.3331728E-1],"categories":[],"categories_nodes":[],"categories_segments":[],"categories_sizes":[],"default_left":[0,0,1,0,0,1,0,0,0,0,0,1,0,0,0,0,0,0,0,0,1,0,0,0,1,1,0,1,0,0,0,0,0,0,0,0,0,0,0,0,0,0,0,0,0,1,0,0,0,0,0,1,0,0,1,0,0,1,0,0,1,0,0,0,0,0,0,0,0,0,0,0,0,0,0,0,0,0,0,0,0,0,0,0,0,0,0,0,0,0,0,0,0,0,0,0,0,0,0,0,0,0,0,0,0,0,0,0,0,0,0,0,0,0,0,0,0,0,0,0,0],"id":2,"left_children":[1,3,5,7,9,11,13,15,17,19,21,23,25,27,29,31,33,35,37,39,41,43,45,47,49,51,53,55,57,59,61,63,-1,65,67,69,71,73,75,77,79,81,83,85,87,89,91,93,95,97,99,101,103,105,107,109,111,113,115,117,119,-1,-1,-1,-1,-1,-1,-1,-1,-1,-1,-1,-1,-1,-1,-1,-1,-1,-1,-1,-1,-1,-1,-1,-1,-1,-1,-1,-1,-1,-1,-1,-1,-1,-1,-1,-1,-1,-1,-1,-1,-1,-1,-1,-1,-1,-1,-1,-1,-1,-1,-1,-1,-1,-1,-1,-1,-1,-1,-1,-1],"loss_changes":[9.439725E3,1.2119497E3,1.8602637E3,1.7545703E2,1.6733313E2,1.4787846E2,2.928955E2,1.8343994E1,3.2560303E1,8.491089E0,2.5178864E1,2.3907215E1,6.5999146E0,3.9297363E1,3.9898193E1,1.548584E0,3.4909668E0,3.1541748E0,4.1435547E0,4.314972E0,4.537567E0,7.8509293E0,8.970463E0,1.0980495E1,9.044388E0,6.3678055E0,5.4501953E0,3.4924316E0,7.058838E0,9.330811E0,1.9539795E0,1.37146E-1,0E0,1.5626221E0,2.2435303E0,4.9569397E0,2.0493164E0,3.6311035E0,2.408142E0,2.9319763E0,2.676333E0,3.065277E0,5.527359E0,4.1910057E0,5.4853745E0,3.9614098E0,4.6429405E0,1.2827552E1,2.55929E1,5.122197E0,4.2619667E0,4.695427E0,2.874179E0,5.556389E0,8.464287E0,5.767639E0,7.652832E0,4.9835815E0,4.081787E0,1.2568359E0,8.574219E-1,0E0,0E0,0E0,0E0,0E0,0E0,0E0,0E0,0E0,0E0,0E0,0E0,0E0,0E0,0E0,0E0,0E0,0E0,0E0,0E0,0E0,0E0,0E0,0E0,0E0,0E0,0E0,0E0,0E0,0E0,0E0,0E0,0E0,0E0,0E0,0E0,0E0,0E0,0E0,0E0,0E0,0E0,0E0,0E0,0E0,0E0,0E0,0E0,0E0,0E0,0E0,0E0,0E0,0E0,0E0,0E0,0E0,0E0,0E0,0E0],"parents":[2147483647,0,0,1,1,2,2,3,3,4,4,5,5,6,6,7,7,8,8,9,9,10,10,11,11,12,12,13,13,14,14,15,15,16,16,17,17,18,18,19,19,20,20,21,21,22,22,23,23,24,24,25,25,26,26,27,27,28,28,29,29,30,30,31,31,33,33,34,34,35,35,36,36,37,37,38,38,39,39,40,40,41,41,42,42,43,43,44,44,45,45,46,46,47,47,48,48,49,49,50,50,51,51,52,52,53,53,54,54,55,55,56,56,57,57,58,58,59,59,60,60],"right_children":[2,4,6,8,10,12,14,16,18,20,22,24,26,28,30,32,34,36,38,40,42,44,46,48,50,52,54,56,58,60,62,64,-1,66,68,70,72,74,76,78,80,82,84,86,88,90,92,94,96,98,100,102,104,106,108,110,112,114,116,118,120,-1,-1,-1,-1,-1,-1,-1,-1,-1,-1,-1,-1,-1,-1,-1,-1,-1,-1,-1,-1,-1,-1,-1,-1,-1,-1,-1,-1,-1,-1,-1,-1,-1,-1,-1,-1,-1,-1,-1,-1,-1,-1,-1,-1,-1,-1,-1,-1,-1,-1,-1,-1,-1,-1,-1,-1,-1,-1,-1,-1],"split_conditions":[4.9521723E0,3.3794243E0,6.1668096E0,2.0297434E0,4.0514417E0,5.5667105E0,7.4904637E0,1.0637763E0,2.7730882E0,3.614348E0,4.3888965E0,5.028366E0,2.7E1,6.70907E0,8.790701E0,3.3191982E-1,1.5781906E0,2E0,6.5E1,6.4E1,4.6675234E0,7E0,6.1848793E0,4.8E1,2.0162323E0,9.819528E0,2.3833027E0,2.0400305E0,7.082325E0,8.118155E0,9.614093E0,6.5E1,-4.258158E-1,4E0,2.4E1,2.8E1,2.6385758E0,3.2280703E0,1.3602116E0,6.158854E0,8E0,1E0,2E1,4.2676826E0,3.4857624E0,1.1559847E-1,7E0,3.5762565E0,7E0,3E0,5.2136693E0,4.342216E0,4.0695457E0,1E1,3.4857624E0,6.482714E0,2.0642228E0,6.9735985E0,1.9E1,9.269799E0,7.9575076E0,4.2326137E-1,4.8156062E-1,-4.8353624E-1,-1.3248271E-1,-3.3178604E-1,-4.017453E-1,-3.6781853E-1,-3.189695E-1,-2.8810656E-1,-1.5673913E-1,-3.2027164E-1,-2.8356192E-1,-2.5143796E-1,-2.1489944E-1,-1.3058625E-1,-3.6434332E-1,-2.3349126E-1,-1.8997413E-1,-1.3682052E-1,7.765131E-2,-2.063356E-1,-1.4700022E-1,1.273115E-1,-2.0342495E-1,-1.7672804E-1,-9.093091E-2,7.416794E-2,-9.0074874E-2,3.6012195E-2,-2.5893936E-2,-4.4675943E-2,-8.419319E-2,2.4757436E-1,1.6584456E-2,-6.363911E-2,4.5043945E-2,-6.1113052E-2,3.0808697E-2,4.178879E-2,8.038414E-2,1.9249497E-1,1.0005429E-1,-2.4671385E-1,1.00729145E-1,1.8961592E-1,1.2179669E-1,1.9549488E-1,9.722357E-2,1.9463427E-1,2.5748697E-1,-4.5578197E-2,1.9209214E-1,2.627385E-1,2.1634205E-1,3.0145735E-1,2.5920385E-1,3.3559185E-1,2.9511702E-1,3.8170147E-1,3.3331728E-1],"split_indices":[0,0,0,0,0,0,0,0,0,0,0,0,3,0,0,0,0,5,3,3,2,1,4,3,2,4,2,2,0,0,0,3,0,1,1,1,0,0,2,4,5,5,3,0,4,2,5,4,5,1,0,2,2,1,4,0,2,4,1,4,4,0,0,0,0,0,0,0,0,0,0,0,0,0,0,0,0,0,0,0,0,0,0,0,0,0,0,0,0,0,0,0,0,0,0,0,0,0,0,0,0,0,0,0,0,0,0,0,0,0,0,0,0,0,0,0,0,0,0,0,0],"split_type":[0,0,0,0,0,0,0,0,0,0,0,0,0,0,0,0,0,0,0,0,0,0,0,0,0,0,0,0,0,0,0,0,0,0,0,0,0,0,0,0,0,0,0,0,0,0,0,0,0,0,0,0,0,0,0,0,0,0,0,0,0,0,0,0,0,0,0,0,0,0,0,0,0,0,0,0,0,0,0,0,0,0,0,0,0,0,0,0,0,0,0,0,0,0,0,0,0,0,0,0,0,0,0,0,0,0,0,0,0,0,0,0,0,0,0,0,0,0,0,0,0],"sum_hessian":[2.2108E4,1.0074E4,1.2034E4,5.071E3,5.003E3,5.794E3,6.24E3,1.786E3,3.285E3,2.033E3,2.97E3,3.995E3,1.799E3,3.599E3,2.641E3,5.34E2,1.252E3,1.644E3,1.641E3,7.03E2,1.33E3,1.094E3,1.876E3,2.195E3,1.8E3,3.25E2,1.474E3,1.563E3,2.036E3,2.032E3,6.09E2,1.44E2,3.9E2,5.48E2,7.04E2,3.02E2,1.342E3,1.593E3,4.8E1,6.81E2,2.2E1,1.071E3,2.59E2,2.4E2,8.54E2,7.14E2,1.162E3,1.361E3,8.34E2,6.67E2,1.133E3,3.18E2,7E0,5.02E2,9.72E2,5.97E2,9.66E2,1.019E3,1.017E3,1.25E3,7.82E2,4.7E2,1.39E2,1.43E2,1E0,6.8E1,4.8E2,5.18E2,1.86E2,2.69E2,3.3E1,1.083E3,2.59E2,1.215E3,3.78E2,6E0,4.2E1,2.63E2,4.18E2,1.5E1,7E0,9.2E1,9.79E2,4E0,2.55E2,1.59E2,8.1E1,1.8E1,8.36E2,1.09E2,6.05E2,7.38E2,4.24E2,2.1E1,1.34E3,5.25E2,3.09E2,5.9E1,6.08E2,4.04E2,7.29E2,2.52E2,6.6E1,4E0,3E0,1.71E2,3.31E2,8.7E1,8.85E2,3.59E2,2.38E2,1.2E1,9.54E2,6.48E2,3.71E2,5.73E2,4.44E2,1.096E3,1.54E2,6.75E2,1.07E2],"tree_param":{"num_deleted":"0","num_feature":"6","num_nodes":"121","size_leaf_vector":"1"}},{"base_weights":[-6.048047E-5,-4.9399507E-1,4.2488536E-1,-7.419454E-1,-2.498938E-1,1.5201043E-1,6.989773E-1,-9.095684E-1,-6.376535E-1,-3.7200332E-1,-1.1135577E-1,7.227695E-2,3.364038E-1,5.769645E-1,8.7714595E-1,-9.8559797E-1,-8.273947E-1,-7.146892E-1,-5.80261E-1,-4.523478E-1,-3.04052E-1,-1.7078E-1,-6.8182044E-2,2.9427316E-2,1.6343111E-1,2.8549019E-1,4.0203828E-1,5.076454E-1,6.557512E-1,8.275645E-1,1.0219326E0,-1.1289824E0,-9.6027666E-1,-9.3534625E-1,-7.973277E-1,-7.5202477E-1,-6.640753E-1,-5.729284E-1,-7.9430264E-1,-2.5698018E-1,-4.7148776E-1,-5.903332E-1,-2.8231984E-1,1.0097496E-2,-1.9639874E-1,-8.521024E-2,1.04803324E-1,3.7944607E-2,-3.3359987E-1,1.7219232E-1,-1.5626925E-1,3.0466747E-1,3.7251215E-2,-1.8270878E-2,4.1592482E-1,5.185398E-1,3.6975875E-1,6.8141586E-1,5.541169E-1,7.917367E-1,8.934339E-1,9.885086E-1,1.1270809E0,-3.4834635E-1,-2.31824E-1,-2.5973156E-1,-2.9921192E-1,-2.864683E-1,-1.746615E-1,-3.035553E-1,-2.313985E-1,-2.3155004E-1,-1.5381253E-1,-2.4528491E-1,-1.8969105E-1,-1.8780833E-1,-1.6324466E-1,1.4953792E-1,-2.4788664E-1,9.827696E-3,-1.24211594E-1,-1.4526254E-1,-5.5347733E-2,1.4718542E-2,-1.9109428E-1,-5.044261E-2,-9.064311E-2,-3.679597E-1,1.8085474E-2,-8.269371E-2,-3.9781313E-2,-4.5149177E-2,-1.0615359E-2,4.4182528E-2,-1.6201937E-1,-1.5826063E-2,1.9577963E-2,-4.1921854E-2,-2.4960826E-1,1.0210277E-1,4.7350917E-2,-1.5177813E-1,1.1891991E-2,1.4908011E-1,8.566012E-2,2.5883839E-2,-2.5269392E-1,-1.2340269E-1,1.423773E-1,2.067113E-1,1.1882333E-1,1.529388E-1,2.3161913E-1,1.5252578E-1,2.1702625E-2,1.2199346E-1,2.0613131E-1,1.140641E-1,2.0011117E-1,2.4586351E-1,2.2494693E-1,2.8574455E-1,2.389341E-1,3.3829945E-1,2.867503E-1,1.7787504E-1,3.4274188E-1],"categories":[],"categories_nodes":[],"categories_segments":[],"categories_sizes":[],"default_left":[0,0,1,0,0,1,0,0,0,0,0,1,0,0,0,0,0,0,0,0,0,0,1,0,1,1,0,1,0,0,0,1,1,0,0,1,1,0,0,0,0,0,0,0,0,0,0,0,1,0,0,0,0,0,0,1,0,0,0,0,0,0,0,0,0,0,0,0,0,0,0,0,0,0,0,0,0,0,0,0,0,0,0,0,0,0,0,0,0,0,0,0,0,0,0,0,0,0,0,0,0,0,0,0,0,0,0,0,0,0,0,0,0,0,0,0,0,0,0,0,0,0,0,0,0,0,0],"id":3,"left_children":[1,3,5,7,9,11,13,15,17,19,21,23,25,27,29,31,33,35,37,39,41,43,45,47,49,51,53,55,57,59,61,63,65,67,69,71,73,75,77,79,81,83,85,87,89,91,93,95,97,99,101,103,105,107,109,111,113,115,117,119,121,123,125,-1,-1,-1,-1,-1,-1,-1,-1,-1,-1,-1,-1,-1,-1,-1,-1,-1,-1,-1,-1,-1,-1,-1,-1,-1,-1,-1,-1,-1,-1,-1,-1,-1,-1,-1,-1,-1,-1,-1,-1,-1,-1,-1,-1,-1,-1,-1,-1,-1,-1,-1,-1,-1,-1,-1,-1,-1,-1,-1,-1,-1,-1,-1,-1],"loss_changes":[4.640788E3,6.186826E2,8.888064E2,8.808716E1,8.714783E1,8.755742E1,1.283833E2,1.132373E1,1.3423828E1,1.481604E1,6.1867657E0,1.6243826E1,5.893585E0,1.8902344E1,1.6440674E1,2.5610352E0,2.3052368E0,2.0176392E0,2.3684082E0,4.5642395E0,9.084717E0,4.7099724E0,4.1357565E0,8.766132E0,3.7521935E0,4.8253784E0,4.57769E0,2.629364E0,3.913269E0,3.538208E0,1.0296631E0,7.645569E-1,2.1514282E0,8.177948E-1,3.3580017E0,3.202362E0,2.2831268E0,2.322998E0,2.7688446E0,5.201246E0,4.0725555E0,3.1331902E0,3.0818024E0,7.955975E0,4.4628525E0,4.145467E0,3.5305114E0,6.85853E0,6.164382E0,3.0723572E0,2.4860978E0,3.3271866E0,3.2638128E0,5.232197E0,3.8358154E0,3.4591675E0,5.7780533E0,1.7666016E0,6.3641205E0,7.538452E-1,2.826355E0,1.0637207E0,4.7366333E-1,0E0,0E0,0E0,0E0,0E0,0E0,0E0,0E0,0E0,0E0,0E0,0E0,0E0,0E0,0E0,0E0,0E0,0E0,0E0,0E0,0E0,0E0,0E0,0E0,0E0,0E0,0E0,0E0,0E0,0E0,0E0,0E0,0E0,0E0,0E0,0E0,0E0,0E0,0E0,0E0,0E0,0E0,0E0,0E0,0E0,0E0,0E0,0E0,0E0,0E0,0E0,0E0,0E0,0E0,0E0,0E0,0E0,0E0,0E0,0E0,0E0,0E0,0E0,0E0],"parents":[2147483647,0,0,1,1,2,2,3,3,4,4,5,5,6,6,7,7,8,8,9,9,10,10,11,11,12,12,13,13,14,14,15,15,16,16,17,17,18,18,19,19,20,20,21,21,22,22,23,23,24,24,25,25,26,26,27,27,28,28,29,29,30,30,31,31,32,32,33,33,34,34,35,35,36,36,37,37,38,38,39,39,40,40,41,41,42,42,43,43,44,44,45,45,46,46,47,47,48,48,49,49,50,50,51,51,52,52,53,53,54,54,55,55,56,56,57,57,58,58,59,59,60,60,61,61,62,62],"right_children":[2,4,6,8,10,12,14,16,18,20,22,24,26,28,30,32,34,36,38,40,42,44,46,48,50,52,54,56,58,60,62,64,66,68,70,72,74,76,78,80,82,84,86,88,90,92,94,96,98,100,102,104,106,108,110,112,114,116,118,120,122,124,126,-1,-1,-1,-1,-1,-1,-1,-1,-1,-1,-1,-1,-1,-1,-1,-1,-1,-1,-1,-1,-1,-1,-1,-1,-1,-1,-1,-1,-1,-1,-1,-1,-1,-1,-1,-1,-1,-1,-1,-1,-1,-1,-1,-1,-1,-1,-1,-1,-1,-1,-1,-1,-1,-1,-1,-1,-1,-1,-1,-1,-1,-1,-1,-1],"split_conditions":[5.004543E0,3.3794243E0,6.2685885E0,2.111534E0,4.2676826E0,5.6841283E0,7.5876036E0,1.5096712E0,2.7103531E0,3.8021374E0,4.5701118E0,5.2567234E0,6.0120015E0,6.935014E0,8.790701E0,3.3191982E-1,1.5499963E0,3.634167E0,6.5E1,3E0,2E0,2.4E1,5.6594586E0,6.5E1,9.348128E0,5.83815E0,1E0,8.49101E0,8.098434E0,8.220099E0,9.614093E0,8.455087E0,1.4324164E0,6.1E1,4E0,8.569356E0,4.3811636E0,2.9443808E0,5.826574E-2,4E0,6.4E1,2.3E1,1.1633756E0,5.826574E-2,4.2E1,3.9E1,1.36182E1,1.637569E0,7.385724E0,2.0756286E-1,1.4E1,1E0,6.3E1,2.7412858E0,5.826574E-2,8.2086935E0,2.1E1,3.3422189E0,3.7E1,7.039169E0,3.9649155E0,6E0,5.826574E-2,-3.4834635E-1,-2.31824E-1,-2.5973156E-1,-2.9921192E-1,-2.864683E-1,-1.746615E-1,-3.035553E-1,-2.313985E-1,-2.3155004E-1,-1.5381253E-1,-2.4528491E-1,-1.8969105E-1,-1.8780833E-1,-1.6324466E-1,1.4953792E-1,-2.4788664E-1,9.827696E-3,-1.24211594E-1,-1.4526254E-1,-5.5347733E-2,1.4718542E-2,-1.9109428E-1,-5.044261E-2,-9.064311E-2,-3.679597E-1,1.8085474E-2,-8.269371E-2,-3.9781313E-2,-4.5149177E-2,-1.0615359E-2,4.4182528E-2,-1.6201937E-1,-1.5826063E-2,1.9577963E-2,-4.1921854E-2,-2.4960826E-1,1.0210277E-1,4.7350917E-2,-1.5177813E-1,1.1891991E-2,1.4908011E-1,8.566012E-2,2.5883839E-2,-2.5269392E-1,-1.2340269E-1,1.423773E-1,2.067113E-1,1.1882333E-1,1.529388E-1,2.3161913E-1,1.5252578E-1,2.1702625E-2,1.2199346E-1,2.0613131E-1,1.140641E-1,2.0011117E-1,2.4586351E-1,2.2494693E-1,2.8574455E-1,2.389341E-1,3.3829945E-1,2.867503E-1,1.7787504E-1,3.4274188E-1],"split_indices":[0,0,0,0,0,0,0,0,0,0,0,0,0,0,0,0,2,2,3,1,1,3,2,3,4,2,1,4,4,0,0,4,2,3,1,4,4,0,2,5,3,3,2,2,3,3,2,2,4,2,1,5,3,2,2,4,1,4,3,4,2,1,2,0,0,0,0,0,0,0,0,0,0,0,0,0,0,0,0,0,0,0,0,0,0,0,0,0,0,0,0,0,0,0,0,0,0,0,0,0,0,0,0,0,0,0,0,0,0,0,0,0,0,0,0,0,0,0,0,0,0,0,0,0,0,0,0],"split_type":[0,0,0,0,0,0,0,0,0,0,0,0,0,0,0,0,0,0,0,0,0,0,0,0,0,0,0,0,0,0,0,0,0,0,0,0,0,0,0,0,0,0,0,0,0,0,0,0,0,0,0,0,0,0,0,0,0,0,0,0,0,0,0,0,0,0,0,0,0,0,0,0,0,0,0,0,0,0,0,0,0,0,0,0,0,0,0,0,0,0,0,0,0,0,0,0,0,0,0,0,0,0,0,0,0,0,0,0,0,0,0,0,0,0,0,0,0,0,0,0,0,0,0,0,0,0,0],"sum_hessian":[2.2108E4,1.0224E4,1.1884E4,5.071E3,5.153E3,5.956E3,5.928E3,1.942E3,3.129E3,2.738E3,2.415E3,4.159E3,1.797E3,3.521E3,2.407E3,1.003E3,9.39E2,1.331E3,1.798E3,1.252E3,1.486E3,1.015E3,1.4E3,2.83E3,1.329E3,1.015E3,7.82E2,1.877E3,1.644E3,1.798E3,6.09E2,1.44E2,8.59E2,1.98E2,7.41E2,7.58E2,5.73E2,1.742E3,5.6E1,1.13E2,1.139E3,1.03E2,1.383E3,1.26E2,8.89E2,1.275E3,1.25E2,2.766E3,6.4E1,1.294E3,3.5E1,9.42E2,7.3E1,2.5E1,7.57E2,1.737E3,1.4E2,1.308E3,3.36E2,1.173E3,6.25E2,4.7E2,1.39E2,1.3E2,1.4E1,2.49E2,6.1E2,1.86E2,1.2E1,7.6E1,6.65E2,6.98E2,6E1,9.4E1,4.79E2,6.05E2,1.137E3,1E0,5.5E1,4E1,7.3E1,1.09E3,4.9E1,7E0,9.6E1,2.06E2,1.177E3,4E0,1.22E2,3.95E2,4.94E2,5.51E2,7.24E2,1.18E2,7E0,6.4E2,2.126E3,4.7E1,1.7E1,1E2,1.194E3,1.2E1,2.3E1,8.3E1,8.59E2,7E1,3E0,1.4E1,1.1E1,4.9E1,7.08E2,1.682E3,5.5E1,9.5E1,4.5E1,2.8E1,1.28E3,1.34E2,2.02E2,6.94E2,4.79E2,3.83E2,2.42E2,8.3E1,3.87E2,5E0,1.34E2],"tree_param":{"num_deleted":"0","num_feature":"6","num_nodes":"127","size_leaf_vector":"1"}},{"base_weights":[-9.9657256E-5,-2.877964E-1,3.5864416E-1,-4.9251625E-1,-9.611277E-2,1.8809232E-1,5.191977E-1,-6.108852E-1,-3.9710972E-1,-2.196189E-1,-3.4424618E-2,9.634334E-2,2.6591015E-1,4.494911E-1,6.3907915E-1,-6.910531E-1,-5.615246E-1,-4.3520844E-1,-3.3488616E-1,-2.6809874E-1,-1.6710557E-1,-9.855402E-2,-9.769184E-3,8.113554E-2,2.3580697E-1,2.053941E-1,3.0031323E-1,4.0653858E-1,5.160961E-1,6.0267854E-1,7.291171E-1,-5.9275967E-1,-7.150712E-1,-7.608203E-1,-5.5505E-1,-4.4419768E-1,-3.14015E-1,-3.4118015E-1,-6.692887E-2,-8.819476E-2,-2.856763E-1,3.4415305E-2,-1.8841346E-1,6.7184284E-2,-1.2105939E-1,1.2723091E-2,-1.4563318E-1,-1.770422E-1,8.861178E-2,4.988397E-1,1.2101932E-1,2.1521896E-1,-1.4788754E-1,8.9205615E-2,3.0783933E-1,4.3417054E-1,3.221239E-1,5.2096474E-1,-8.141305E-2,5.728249E-1,6.4548236E-1,6.7347896E-1,7.8201425E-1,-1.6201565E-1,-2.4222289E-1,-1.0496638E-1,-2.18349E-1,-2.4693288E-1,-1.1775678E-1,-6.334879E-2,-1.6865402E-1,-1.3125296E-1,-1.8945539E-1,1.8312917E-3,-1.2056681E-1,-9.358527E-2,-1.1631902E-1,-1.5454036E-1,6.590129E-2,-5.72608E-2,1.8171579E-1,-8.397109E-2,-2.3345944E-1,-2.4087045E-1,2.6419707E-2,-5.1384635E-2,-1.1626972E-1,-1.0584729E-2,9.2865914E-2,-7.1894385E-2,-1.6468724E-2,-4.0742607E-4,7.651384E-2,-9.594729E-2,3.945823E-3,2.7626008E-1,-9.082097E-2,5.488648E-2,2.0835575E-2,2.2227688E-1,7.689749E-2,2.7459022E-1,2.281565E-2,5.8977403E-2,1.4312276E-1,-1.5329547E-1,2.731981E-1,1.5467341E-1,-6.807817E-2,1.0305131E-1,7.971364E-2,1.49956E-1,1.21687986E-1,1.0927452E-1,2.5927447E-2,1.715689E-1,1.431552E-1,-1.4912093E-1,4.0977575E-2,1.7907177E-1,1.4953208E-1,1.275049E-1,1.9897746E-1,1.6537477E-1,2.1355848E-1,1.7174128E-1,2.4731122E-1],"categories":[],"categories_nodes":[],"categories_segments":[],"categories_sizes":[],"default_left":[1,0,0,0,0,0,0,0,0,0,0,1,0,0,0,0,0,1,1,1,0,0,1,0,0,1,0,0,1,0,0,0,0,0,0,0,0,1,0,0,1,0,1,1,0,1,0,0,0,0,0,1,0,0,0,1,1,0,0,1,0,0,1,0,0,0,0,0,0,0,0,0,0,0,0,0,0,0,0,0,0,0,0,0,0,0,0,0,0,0,0,0,0,0,0,0,0,0,0,0,0,0,0,0,0,0,0,0,0,0,0,0,0,0,0,0,0,0,0,0,0,0,0,0,0,0,0],"id":4,"left_children":[1,3,5,7,9,11,13,15,17,19,21,23,25,27,29,31,33,35,37,39,41,43,45,47,49,51,53,55,57,59,61,63,65,67,69,71,73,75,77,79,81,83,85,87,89,91,93,95,97,99,101,103,105,107,109,111,113,115,117,119,121,123,125,-1,-1,-1,-1,-1,-1,-1,-1,-1,-1,-1,-1,-1,-1,-1,-1,-1,-1,-1,-1,-1,-1,-1,-1,-1,-1,-1,-1,-1,-1,-1,-1,-1,-1,-1,-1,-1,-1,-1,-1,-1,-1,-1,-1,-1,-1,-1,-1,-1,-1,-1,-1,-1,-1,-1,-1,-1,-1,-1,-1,-1,-1,-1,-1],"loss_changes":[2.2819604E3,4.814453E2,2.6934802E2,6.6759766E1,4.8280807E1,3.40522E1,4.20636E1,1.0082581E1,7.6488647E0,5.32946E0,6.6840906E0,4.6299553E0,5.3138733E0,8.967834E0,5.659851E0,1.9463806E0,1.6977539E0,2.0786438E0,2.0903778E0,3.440651E0,4.369173E0,4.3871546E0,9.337598E0,3.833624E0,6.4311056E0,3.2910461E0,2.5845795E0,4.4202576E0,3.6903381E0,1.3310852E0,1.0361328E0,1.8606339E0,3.4821167E0,8.0101967E-1,3.7921143E0,2.0951843E0,4.053213E0,1.5444336E0,3.9668298E0,7.1690984E0,2.619667E0,4.4730997E0,3.0690079E0,3.5126185E0,8.099868E0,8.947119E0,1.2008254E1,8.006836E0,3.463313E0,3.626152E0,5.323591E0,4.3644943E0,1.0458589E1,7.9348364E0,2.2931366E0,2.5532532E0,4.793873E0,2.501007E0,1.0646632E0,1.1229553E0,1.8304138E0,8.5552216E-1,1.888977E0,0E0,0E0,0E0,0E0,0E0,0E0,0E0,0E0,0E0,0E0,0E0,0E0,0E0,0E0,0E0,0E0,0E0,0E0,0E0,0E0,0E0,0E0,0E0,0E0,0E0,0E0,0E0,0E0,0E0,0E0,0E0,0E0,0E0,0E0,0E0,0E0,0E0,0E0,0E0,0E0,0E0,0E0,0E0,0E0,0E0,0E0,0E0,0E0,0E0,0E0,0E0,0E0,0E0,0E0,0E0,0E0,0E0,0E0,0E0,0E0,0E0,0E0,0E0,0E0],"parents":[2147483647,0,0,1,1,2,2,3,3,4,4,5,5,6,6,7,7,8,8,9,9,10,10,11,11,12,12,13,13,14,14,15,15,16,16,17,17,18,18,19,19,20,20,21,21,22,22,23,23,24,24,25,25,26,26,27,27,28,28,29,29,30,30,31,31,32,32,33,33,34,34,35,35,36,36,37,37,38,38,39,39,40,40,41,41,42,42,43,43,44,44,45,45,46,46,47,47,48,48,49,49,50,50,51,51,52,52,53,53,54,54,55,55,56,56,57,57,58,58,59,59,60,60,61,61,62,62],"right_children":[2,4,6,8,10,12,14,16,18,20,22,24,26,28,30,32,34,36,38,40,42,44,46,48,50,52,54,56,58,60,62,64,66,68,70,72,74,76,78,80,82,84,86,88,90,92,94,96,98,100,102,104,106,108,110,112,114,116,118,120,122,124,126,-1,-1,-1,-1,-1,-1,-1,-1,-1,-1,-1,-1,-1,-1,-1,-1,-1,-1,-1,-1,-1,-1,-1,-1,-1,-1,-1,-1,-1,-1,-1,-1,-1,-1,-1,-1,-1,-1,-1,-1,-1,-1,-1,-1,-1,-1,-1,-1,-1,-1,-1,-1,-1,-1,-1,-1,-1,-1,-1,-1,-1,-1,-1,-1],"split_conditions":[5.028366E0,3.666797E0,6.5666566E0,2.4321685E0,4.3428836E0,5.713628E0,7.848743E0,1.5096712E0,3.2280703E0,4.022653E0,4.692781E0,5.619653E0,6.0120015E0,7.2959228E0,8.8792715E0,5.4811573E0,3.6541638E0,5.9466352E0,7.0492225E0,3.1952276E0,4.662997E0,2.4E1,5.030326E0,1E0,3.4E1,9.688732E0,1E0,2.4E1,9.819528E0,1.9E1,6.74999E0,9E0,1E0,5.101593E0,4.106445E0,3.1E1,2E0,6.840752E0,4.9E1,2.8E1,8.602896E0,1.9E1,8.569356E0,3.634167E0,3.9E1,4.623817E0,5.83815E0,2.4E1,6E0,7E0,5.6594586E0,8.696338E0,2.3E1,4E0,1.7E1,5.332181E0,4.9179053E0,1.4E1,7E0,7.433244E0,3.3750224E-1,3E0,5.826574E-2,-1.6201565E-1,-2.4222289E-1,-1.0496638E-1,-2.18349E-1,-2.4693288E-1,-1.1775678E-1,-6.334879E-2,-1.6865402E-1,-1.3125296E-1,-1.8945539E-1,1.8312917E-3,-1.2056681E-1,-9.358527E-2,-1.1631902E-1,-1.5454036E-1,6.590129E-2,-5.72608E-2,1.8171579E-1,-8.397109E-2,-2.3345944E-1,-2.4087045E-1,2.6419707E-2,-5.1384635E-2,-1.1626972E-1,-1.0584729E-2,9.2865914E-2,-7.1894385E-2,-1.6468724E-2,-4.0742607E-4,7.651384E-2,-9.594729E-2,3.945823E-3,2.7626008E-1,-9.082097E-2,5.488648E-2,2.0835575E-2,2.2227688E-1,7.689749E-2,2.7459022E-1,2.281565E-2,5.8977403E-2,1.4312276E-1,-1.5329547E-1,2.731981E-1,1.5467341E-1,-6.807817E-2,1.0305131E-1,7.971364E-2,1.49956E-1,1.21687986E-1,1.0927452E-1,2.5927447E-2,1.715689E-1,1.431552E-1,-1.4912093E-1,4.0977575E-2,1.7907177E-1,1.4953208E-1,1.275049E-1,1.9897746E-1,1.6537477E-1,2.1355848E-1,1.7174128E-1,2.4731122E-1],"split_indices":[0,0,0,0,0,0,0,0,0,0,0,2,0,0,0,4,4,2,2,4,4,3,2,1,3,4,1,1,4,1,4,5,1,2,4,1,5,4,3,1,2,3,4,2,3,2,2,3,1,5,2,4,1,5,1,4,2,1,1,4,2,5,2,0,0,0,0,0,0,0,0,0,0,0,0,0,0,0,0,0,0,0,0,0,0,0,0,0,0,0,0,0,0,0,0,0,0,0,0,0,0,0,0,0,0,0,0,0,0,0,0,0,0,0,0,0,0,0,0,0,0,0,0,0,0,0,0],"split_type":[0,0,0,0,0,0,0,0,0,0,0,0,0,0,0,0,0,0,0,0,0,0,0,0,0,0,0,0,0,0,0,0,0,0,0,0,0,0,0,0,0,0,0,0,0,0,0,0,0,0,0,0,0,0,0,0,0,0,0,0,0,0,0,0,0,0,0,0,0,0,0,0,0,0,0,0,0,0,0,0,0,0,0,0,0,0,0,0,0,0,0,0,0,0,0,0,0,0,0,0,0,0,0,0,0,0,0,0,0,0,0,0,0,0,0,0,0,0,0,0,0,0,0,0,0,0,0],"sum_hessian":[2.2108E4,1.2269E4,9.839E3,5.932E3,6.337E3,4.772E3,5.067E3,2.645E3,3.287E3,2.11E3,4.227E3,2.191E3,2.581E3,3.207E3,1.86E3,1.003E3,1.642E3,2.035E3,1.252E3,1.095E3,1.015E3,1.173E3,3.054E3,1.977E3,2.14E2,9.38E2,1.643E3,1.954E3,1.253E3,1.33E3,5.3E2,2.02E2,8.01E2,4.8E1,1.594E3,1.892E3,1.43E2,1.223E3,2.9E1,9.8E1,9.97E2,9.7E1,9.18E2,1.4E2,1.033E3,2.621E3,4.33E2,5.5E1,1.922E3,6.4E1,1.5E2,9.13E2,2.5E1,5.7E1,1.586E3,1.469E3,4.85E2,1.243E3,1E1,7.92E2,5.38E2,2.65E2,2.65E2,1.65E2,3.7E1,2.8E1,7.73E2,4E1,8E0,3.3E1,1.561E3,1.83E3,6.2E1,3.1E1,1.12E2,7.56E2,4.67E2,1.1E1,1.8E1,8.6E1,1.2E1,9.87E2,1E1,5E0,9.2E1,8.47E2,7.1E1,9.9E1,4.1E1,3.69E2,6.64E2,2.478E3,1.43E2,2.06E2,2.27E2,5E0,5E1,3.23E2,1.599E3,3.1E1,3.3E1,7E0,1.43E2,8.54E2,5.9E1,1.9E1,6E0,2.4E1,3.3E1,8.55E2,7.31E2,4.4E2,1.029E3,4.11E2,7.4E1,5.69E2,6.74E2,3E0,7E0,5.93E2,1.99E2,4.2E1,4.96E2,6.7E1,1.98E2,4.7E1,2.18E2],"tree_param":{"num_deleted":"0","num_feature":"6","num_nodes":"127","size_leaf_vector":"1"}},{"base_weights":[-3.1065178E-5,-2.4353883E-1,2.0946552E-1,-3.7460038E-1,-1.3285485E-1,8.8827364E-2,3.5913196E-1,-4.5606494E-1,-3.2418522E-1,-2.1290699E-1,-7.403832E-2,2.8272849E-2,1.6603349E-1,2.9830852E-1,4.3215787E-1,-5.2615994E-1,-4.2577216E-1,-3.582977E-1,-2.9500657E-1,-1.9517748E-1,-2.8828698E-1,-1.13094E-1,-3.461743E-2,6.329692E-2,-2.8341727E-2,-3.0929688E-2,1.7265923E-1,3.7192732E-1,2.776442E-1,3.9164436E-1,4.8177877E-1,-5.953063E-1,-4.7125146E-1,-2.8584555E-1,-4.3507162E-1,-5.4616934E-1,-3.4914696E-1,-2.4769913E-1,-3.2243168E-1,-1.9213381E-1,-8.925086E-1,-3.2258812E-1,7.706793E-2,-8.253855E-2,-1.8417655E-1,6.5055735E-2,-7.921712E-2,2.490339E-2,1.9096099E-1,1.2122301E-1,-7.798177E-2,-2.1126185E-1,1.355945E-1,1.373261E-1,2.098372E-1,3.2504267E-1,5.059443E-1,2.058235E-1,2.9498413E-1,4.1868532E-1,3.4946445E-1,4.5810205E-1,5.422142E-1,-1.6800803E-1,-2.599292E-1,-1.4557923E-1,1.2123586E-2,-1.2549438E-1,8.285291E-3,-1.3974974E-1,-1.1898368E-1,-2.1005967E-1,-5.3081136E-2,-8.62013E-2,-1.15663886E-1,-8.494654E-2,8.242335E-3,-8.508445E-2,-1.369946E-1,-6.097434E-2,5.105972E-2,-7.345938E-2,-2.8501457E-1,-1.09611094E-1,-1.9215867E-2,1.1434788E-1,-1.15165904E-1,-3.3996325E-2,3.549101E-2,-4.4949725E-2,-1.328285E-1,2.9655935E-2,-6.176747E-2,-1.725676E-2,-1.1009399E-1,6.567447E-2,-8.56574E-3,-2.3849776E-2,7.874882E-2,2.2382798E-2,3.4905097E-1,-7.414113E-2,-4.4573853E-3,-2.4073942E-2,-2.2228934E-1,9.260824E-2,-8.666526E-2,4.4134885E-2,-8.922809E-2,8.888367E-2,5.6308728E-2,6.329009E-2,1.18275054E-1,1.675416E-1,2.4363322E-2,9.245366E-2,2.5821684E-2,8.062643E-2,1.12324715E-1,1.0576085E-1,1.4305922E-1,1.10102564E-1,-8.1801556E-2,1.18264325E-1,1.4744037E-1,2.0133846E-1,1.5480573E-1],"categories":[],"categories_nodes":[],"categories_segments":[],"categories_sizes":[],"default_left":[0,0,1,0,0,1,0,0,0,0,0,0,0,0,0,0,0,0,0,1,1,0,0,0,0,0,0,0,0,0,0,0,0,1,1,0,0,0,0,1,0,0,0,1,0,1,0,1,1,1,0,1,0,0,0,0,0,0,0,0,1,1,0,0,0,0,0,0,0,0,0,0,0,0,0,0,0,0,0,0,0,0,0,0,0,0,0,0,0,0,0,0,0,0,0,0,0,0,0,0,0,0,0,0,0,0,0,0,0,0,0,0,0,0,0,0,0,0,0,0,0,0,0,0,0,0,0],"id":5,"left_children":[1,3,5,7,9,11,13,15,17,19,21,23,25,27,29,31,33,35,37,39,41,43,45,47,49,51,53,55,57,59,61,63,65,67,69,71,73,75,77,79,81,83,85,87,89,91,93,95,97,99,101,103,105,107,109,111,113,115,117,119,121,123,125,-1,-1,-1,-1,-1,-1,-1,-1,-1,-1,-1,-1,-1,-1,-1,-1,-1,-1,-1,-1,-1,-1,-1,-1,-1,-1,-1,-1,-1,-1,-1,-1,-1,-1,-1,-1,-1,-1,-1,-1,-1,-1,-1,-1,-1,-1,-1,-1,-1,-1,-1,-1,-1,-1,-1,-1,-1,-1,-1,-1,-1,-1,-1,-1],"loss_changes":[1.1279205E3,1.4827832E2,2.145575E2,1.907721E1,2.6092262E1,3.0767334E1,2.342981E1,3.5704346E0,2.7758484E0,3.0817184E0,4.919758E0,7.3185954E0,3.7807922E0,4.303894E0,4.6521606E0,1.7507172E0,1.5060883E0,2.0957947E0,1.951889E0,3.8696442E0,5.601639E0,3.4729633E0,7.0866632E0,1.1170607E1,1.0485281E1,2.8814645E0,3.6479874E0,3.8066177E0,2.7612762E0,1.3717957E0,1.2941284E0,1.743454E0,2.192047E0,3.3750105E0,1.2029419E0,3.2884693E0,2.7487335E0,5.656826E0,5.017845E0,7.6737366E0,6.548977E-2,4.478306E0,5.613044E0,6.968631E0,4.214245E0,4.534906E0,6.8523197E0,1.8197073E1,1.0216946E1,1.7014942E1,1.1314722E1,3.1329026E0,3.763032E0,6.1643257E0,2.551178E0,3.6353188E0,3.5689049E0,5.415663E0,3.6974945E0,2.9337616E0,5.8412704E0,1.4710999E0,6.6000366E-1,0E0,0E0,0E0,0E0,0E0,0E0,0E0,0E0,0E0,0E0,0E0,0E0,0E0,0E0,0E0,0E0,0E0,0E0,0E0,0E0,0E0,0E0,0E0,0E0,0E0,0E0,0E0,0E0,0E0,0E0,0E0,0E0,0E0,0E0,0E0,0E0,0E0,0E0,0E0,0E0,0E0,0E0,0E0,0E0,0E0,0E0,0E0,0E0,0E0,0E0,0E0,0E0,0E0,0E0,0E0,0E0,0E0,0E0,0E0,0E0,0E0,0E0,0E0,0E0],"parents":[2147483647,0,0,1,1,2,2,3,3,4,4,5,5,6,6,7,7,8,8,9,9,10,10,11,11,12,12,13,13,14,14,15,15,16,16,17,17,18,18,19,19,20,20,21,21,22,22,23,23,24,24,25,25,26,26,27,27,28,28,29,29,30,30,31,31,32,32,33,33,34,34,35,35,36,36,37,37,38,38,39,39,40,40,41,41,42,42,43,43,44,44,45,45,46,46,47,47,48,48,49,49,50,50,51,51,52,52,53,53,54,54,55,55,56,56,57,57,58,58,59,59,60,60,61,61,62,62],"right_children":[2,4,6,8,10,12,14,16,18,20,22,24,26,28,30,32,34,36,38,40,42,44,46,48,50,52,54,56,58,60,62,64,66,68,70,72,74,76,78,80,82,84,86,88,90,92,94,96,98,100,102,104,106,108,110,112,114,116,118,120,122,124,126,-1,-1,-1,-1,-1,-1,-1,-1,-1,-1,-1,-1,-1,-1,-1,-1,-1,-1,-1,-1,-1,-1,-1,-1,-1,-1,-1,-1,-1,-1,-1,-1,-1,-1,-1,-1,-1,-1,-1,-1,-1,-1,-1,-1,-1,-1,-1,-1,-1,-1,-1,-1,-1,-1,-1,-1,-1,-1,-1,-1,-1,-1,-1,-1],"split_conditions":[5.004543E0,3.2280703E0,6.482714E0,2.0297434E0,4.022653E0,5.5144935E0,7.5876036E0,1.0637763E0,2.6385758E0,9E0,1.6E1,4.8E1,1E0,1.5014528E0,8.326412E0,5E0,4.414501E0,2E1,1.2E1,1.36182E1,8.297025E0,5.1E1,5.861039E0,4.1E1,8E0,4.1E1,6.0120015E0,1.0994303E0,2.4801013E0,4.6E1,9.212235E0,9.348128E0,6.5E1,3.6152296E0,6.69261E0,2.5E1,3.6E1,6E1,5.5E1,6.580318E0,3.3520389E0,5.9E1,8.741157E0,5.1312966E0,1.4E1,5.2074075E0,3.1E1,4.8879037E0,4.812595E0,9.052144E0,1.9542383E0,4.258044E0,5.8E1,3.1E1,2.8E1,4E0,6E1,6E0,7.2959228E0,3.2E1,6.6668315E0,1.637569E0,1.4109205E0,-1.6800803E-1,-2.599292E-1,-1.4557923E-1,1.2123586E-2,-1.2549438E-1,8.285291E-3,-1.3974974E-1,-1.1898368E-1,-2.1005967E-1,-5.3081136E-2,-8.62013E-2,-1.15663886E-1,-8.494654E-2,8.242335E-3,-8.508445E-2,-1.369946E-1,-6.097434E-2,5.105972E-2,-7.345938E-2,-2.8501457E-1,-1.09611094E-1,-1.9215867E-2,1.1434788E-1,-1.15165904E-1,-3.3996325E-2,3.549101E-2,-4.4949725E-2,-1.328285E-1,2.9655935E-2,-6.176747E-2,-1.725676E-2,-1.1009399E-1,6.567447E-2,-8.56574E-3,-2.3849776E-2,7.874882E-2,2.2382798E-2,3.4905097E-1,-7.414113E-2,-4.4573853E-3,-2.4073942E-2,-2.2228934E-1,9.260824E-2,-8.666526E-2,4.4134885E-2,-8.922809E-2,8.888367E-2,5.6308728E-2,6.329009E-2,1.18275054E-1,1.675416E-1,2.4363322E-2,9.245366E-2,2.5821684E-2,8.062643E-2,1.12324715E-1,1.0576085E-1,1.4305922E-1,1.10102564E-1,-8.1801556E-2,1.18264325E-1,1.4744037E-1,2.0133846E-1,1.5480573E-1],"split_indices":[0,0,0,0,0,0,0,0,0,5,1,3,1,2,0,5,4,3,1,2,4,3,4,3,1,3,0,2,2,3,0,4,3,2,4,1,3,3,3,2,0,3,4,2,1,2,1,4,4,4,2,2,3,1,3,5,3,5,0,3,2,2,2,0,0,0,0,0,0,0,0,0,0,0,0,0,0,0,0,0,0,0,0,0,0,0,0,0,0,0,0,0,0,0,0,0,0,0,0,0,0,0,0,0,0,0,0,0,0,0,0,0,0,0,0,0,0,0,0,0,0,0,0,0,0,0,0],"split_type":[0,0,0,0,0,0,0,0,0,0,0,0,0,0,0,0,0,0,0,0,0,0,0,0,0,0,0,0,0,0,0,0,0,0,0,0,0,0,0,0,0,0,0,0,0,0,0,0,0,0,0,0,0,0,0,0,0,0,0,0,0,0,0,0,0,0,0,0,0,0,0,0,0,0,0,0,0,0,0,0,0,0,0,0,0,0,0,0,0,0,0,0,0,0,0,0,0,0,0,0,0,0,0,0,0,0,0,0,0,0,0,0,0,0,0,0,0,0,0,0,0,0,0,0,0,0,0],"sum_hessian":[2.2108E4,1.0224E4,1.1884E4,4.68E3,5.544E3,6.581E3,5.303E3,1.786E3,2.894E3,2.347E3,3.197E3,3.689E3,2.892E3,2.896E3,2.407E3,5.34E2,1.252E3,1.329E3,1.565E3,1.903E3,4.44E2,1.605E3,1.592E3,2.279E3,1.41E3,9.4E1,2.798E3,6.31E2,2.265E3,1.33E3,1.077E3,2.32E2,3.02E2,8E1,1.172E3,5.9E1,1.27E3,5.78E2,9.87E2,1.896E3,7E0,4.06E2,3.8E1,1.124E3,4.81E2,4.92E2,1.1E3,1.753E3,5.26E2,3.51E2,1.059E3,4.5E1,4.9E1,1.437E3,1.361E3,4.7E2,1.61E2,4.43E2,1.822E3,8.05E2,5.25E2,7.8E2,2.97E2,2.08E2,2.4E1,2.94E2,8E0,5.6E1,2.4E1,6.45E2,5.27E2,4.1E1,1.8E1,4.74E2,7.96E2,5.12E2,6.6E1,7.68E2,2.19E2,1.84E3,5.6E1,1E0,6E0,3.48E2,5.8E1,2.3E1,1.5E1,9.75E2,1.49E2,4.26E2,5.5E1,4.38E2,5.4E1,1.024E3,7.6E1,3.78E2,1.375E3,1.1E2,4.16E2,3.37E2,1.4E1,2.87E2,7.72E2,3.7E1,8E0,3.5E1,1.4E1,1.406E3,3.1E1,2.75E2,1.086E3,1.79E2,2.91E2,1.43E2,1.8E1,2.38E2,2.05E2,1.373E3,4.49E2,3.8E2,4.25E2,5.11E2,1.4E1,2.72E2,5.08E2,4.6E1,2.51E2],"tree_param":{"num_deleted":"0","num_feature":"6","num_nodes":"127","size_leaf_vector":"1"}},{"base_weights":[-5.282647E-5,-1.9522095E-1,1.2959404E-1,-2.78745E-1,-1.3144606E-1,3.934286E-2,2.4156038E-1,-3.3214083E-1,-2.4789165E-1,-1.7374213E-1,-8.9046754E-2,-1.2427599E-3,9.424482E-2,1.9275579E-1,2.9606757E-1,-4.3083245E-1,-3.204456E-1,-2.5950432E-1,-1.8915719E-1,-2.1749368E-1,-1.4696375E-1,-7.534205E-2,-2.0112818E-1,2.523437E-1,-6.12852E-3,1.7169783E-1,7.750146E-2,1.7035927E-1,2.2287665E-1,2.6494145E-1,3.3527103E-1,-3.231712E-1,-5.1190835E-1,-3.0282193E-1,-3.7082818E-1,-2.4712107E-1,-4.1692805E-1,-1.01502515E-1,-2.84461E-1,-2.0320377E-1,-6.0798943E-1,-1.2776248E-1,-2.940675E-1,-8.963037E-2,1.6423123E-4,-9.965263E-2,-3.2693937E-1,8.743883E-1,1.5098894E-1,-3.3093074E-1,-2.2490274E-3,2.511627E-1,9.045917E-2,4.9877625E-2,1.1971662E-1,1.7972474E-1,5.536292E-2,3.314161E-1,2.0735277E-1,2.1736063E-1,2.8629902E-1,4.487895E-1,3.2487398E-1,-1.23614E-1,1.6501904E-4,-2.085732E-1,-1.0011669E-1,-7.206107E-2,-1.0124975E-1,3.975934E-2,-1.1426058E-1,-7.9813525E-2,-4.6575412E-2,-1.581743E-1,-5.633405E-2,4.3253615E-3,-1.0744528E-1,-1.1295141E-1,-3.6299564E-2,3.417605E-2,-6.432843E-2,-2.4193023E-1,3.2400608E-3,-2.1513695E-2,-5.1290613E-2,1.610913E-2,-1.0933429E-1,-1.9537395E-2,-5.822359E-2,-1.7514199E-2,1.2498828E-1,-8.462175E-2,2.041534E-2,-1.7840752E-1,-4.0937837E-2,5.0579768E-2,3.7608323E-1,1.6042646E-2,2.1921664E-1,-2.0803763E-1,1.3803734E-1,6.5793903E-3,-1.5776014E-2,6.507118E-2,1.5580237E-1,-3.3775322E-2,4.6062514E-2,2.5611581E-2,-6.1379466E-3,-3.22109E-2,4.168701E-2,5.218515E-2,1.1371374E-1,5.257805E-2,-6.324416E-2,1.16202064E-1,-3.5610806E-2,3.8632005E-2,6.911493E-2,1.3423161E-1,5.2576948E-2,3.6176968E-1,8.452411E-2,6.839203E-2,1.6873044E-1,2.790212E-2,1.0024198E-1],"categories":[],"categories_nodes":[],"categories_segments":[],"categories_sizes":[],"default_left":[0,0,1,0,0,1,0,0,0,0,0,0,0,0,0,0,0,0,0,0,0,0,0,0,0,0,0,1,0,1,0,0,0,1,0,0,0,0,0,0,0,1,0,0,0,0,0,0,0,1,1,0,0,0,0,1,0,0,0,0,0,0,0,0,0,0,0,0,0,0,0,0,0,0,0,0,0,0,0,0,0,0,0,0,0,0,0,0,0,0,0,0,0,0,0,0,0,0,0,0,0,0,0,0,0,0,0,0,0,0,0,0,0,0,0,0,0,0,0,0,0,0,0,0,0,0,0],"id":6,"left_children":[1,3,5,7,9,11,13,15,17,19,21,23,25,27,29,31,33,35,37,39,41,43,45,47,49,51,53,55,57,59,61,63,65,67,69,71,73,75,77,79,81,83,85,87,89,91,93,95,97,99,101,103,105,107,109,111,113,115,117,119,121,123,125,-1,-1,-1,-1,-1,-1,-1,-1,-1,-1,-1,-1,-1,-1,-1,-1,-1,-1,-1,-1,-1,-1,-1,-1,-1,-1,-1,-1,-1,-1,-1,-1,-1,-1,-1,-1,-1,-1,-1,-1,-1,-1,-1,-1,-1,-1,-1,-1,-1,-1,-1,-1,-1,-1,-1,-1,-1,-1,-1,-1,-1,-1,-1,-1],"loss_changes":[5.5944794E2,4.69718E1,1.3423666E2,6.2108765E0,8.961906E0,1.6393208E1,1.57152405E1,1.4732361E0,1.6049194E0,2.9028854E0,3.8280258E0,5.2435975E0,4.041857E0,2.0742111E0,3.3266754E0,1.1002331E0,9.993744E-1,3.838684E0,3.3460703E0,5.172016E0,4.360298E0,2.4069471E0,3.4399796E0,4.911752E0,5.2310576E0,3.5601501E0,2.9945202E0,1.9286385E0,2.1756363E0,1.5281372E0,1.3117981E0,1.8703332E0,2.4140778E0,1.9448776E0,1.667736E0,3.2219315E0,3.5917988E0,6.3123302E0,2.8582602E0,3.2884903E0,4.06096E0,3.3272858E0,4.4007215E0,4.789132E0,8.704245E0,4.669255E0,6.090023E0,2.7328043E0,3.9181495E0,1.4371279E1,4.996467E0,2.4598465E0,3.552434E0,3.88892E0,4.458351E0,1.849205E0,4.409146E0,4.199438E0,2.084072E0,4.658642E0,4.1685867E0,2.4063435E0,2.4074402E0,0E0,0E0,0E0,0E0,0E0,0E0,0E0,0E0,0E0,0E0,0E0,0E0,0E0,0E0,0E0,0E0,0E0,0E0,0E0,0E0,0E0,0E0,0E0,0E0,0E0,0E0,0E0,0E0,0E0,0E0,0E0,0E0,0E0,0E0,0E0,0E0,0E0,0E0,0E0,0E0,0E0,0E0,0E0,0E0,0E0,0E0,0E0,0E0,0E0,0E0,0E0,0E0,0E0,0E0,0E0,0E0,0E0,0E0,0E0,0E0,0E0,0E0,0E0,0E0],"parents":[2147483647,0,0,1,1,2,2,3,3,4,4,5,5,6,6,7,7,8,8,9,9,10,10,11,11,12,12,13,13,14,14,15,15,16,16,17,17,18,18,19,19,20,20,21,21,22,22,23,23,24,24,25,25,26,26,27,27,28,28,29,29,30,30,31,31,32,32,33,33,34,34,35,35,36,36,37,37,38,38,39,39,40,40,41,41,42,42,43,43,44,44,45,45,46,46,47,47,48,48,49,49,50,50,51,51,52,52,53,53,54,54,55,55,56,56,57,57,58,58,59,59,60,60,61,61,62,62],"right_children":[2,4,6,8,10,12,14,16,18,20,22,24,26,28,30,32,34,36,38,40,42,44,46,48,50,52,54,56,58,60,62,64,66,68,70,72,74,76,78,80,82,84,86,88,90,92,94,96,98,100,102,104,106,108,110,112,114,116,118,120,122,124,126,-1,-1,-1,-1,-1,-1,-1,-1,-1,-1,-1,-1,-1,-1,-1,-1,-1,-1,-1,-1,-1,-1,-1,-1,-1,-1,-1,-1,-1,-1,-1,-1,-1,-1,-1,-1,-1,-1,-1,-1,-1,-1,-1,-1,-1,-1,-1,-1,-1,-1,-1,-1,-1,-1,-1,-1,-1,-1,-1,-1,-1,-1,-1,-1],"split_conditions":[4.5701118E0,2.9159532E0,6.2685885E0,1.8031316E0,3.8021374E0,5.2567234E0,7.4217906E0,3.3191982E-1,5.7500467E0,6.142475E0,6.1E1,3.5762565E0,2.7E1,6.9010453E0,8.220099E0,3.8E1,7.8650084E0,5.030326E0,4.2E1,6.099391E0,7.612716E0,5.4E1,3.3075848E0,5E0,3.808969E0,6.8703175E0,7.135515E0,8.49101E0,6.9827706E-1,5.461689E0,2.2E1,3.3E1,6E0,1.9542383E0,1E0,5.8E1,2.1E1,7.6688185E0,7.385724E0,2E1,3.4838834E0,6.930546E0,6E0,9E0,6.4084826E0,6.69261E0,4.451748E0,5.004543E0,1E1,3.634167E0,3.747684E0,6.618714E0,7.23296E0,2.1E1,3E1,8.270876E0,4.451748E0,6E1,2.9E1,5E0,5.4811573E0,3E0,2.4E1,-1.23614E-1,1.6501904E-4,-2.085732E-1,-1.0011669E-1,-7.206107E-2,-1.0124975E-1,3.975934E-2,-1.1426058E-1,-7.9813525E-2,-4.6575412E-2,-1.581743E-1,-5.633405E-2,4.3253615E-3,-1.0744528E-1,-1.1295141E-1,-3.6299564E-2,3.417605E-2,-6.432843E-2,-2.4193023E-1,3.2400608E-3,-2.1513695E-2,-5.1290613E-2,1.610913E-2,-1.0933429E-1,-1.9537395E-2,-5.822359E-2,-1.7514199E-2,1.2498828E-1,-8.462175E-2,2.041534E-2,-1.7840752E-1,-4.0937837E-2,5.0579768E-2,3.7608323E-1,1.6042646E-2,2.1921664E-1,-2.0803763E-1,1.3803734E-1,6.5793903E-3,-1.5776014E-2,6.507118E-2,1.5580237E-1,-3.3775322E-2,4.6062514E-2,2.5611581E-2,-6.1379466E-3,-3.22109E-2,4.168701E-2,5.218515E-2,1.1371374E-1,5.257805E-2,-6.324416E-2,1.16202064E-1,-3.5610806E-2,3.8632005E-2,6.911493E-2,1.3423161E-1,5.2576948E-2,3.6176968E-1,8.452411E-2,6.839203E-2,1.6873044E-1,2.790212E-2,1.0024198E-1],"split_indices":[0,0,0,0,0,0,0,0,2,4,3,4,3,0,0,3,4,2,3,4,2,3,2,1,4,4,4,4,2,4,3,3,5,2,1,3,1,4,4,3,0,4,1,5,2,4,2,0,5,2,2,4,4,1,3,4,2,3,3,1,4,5,3,0,0,0,0,0,0,0,0,0,0,0,0,0,0,0,0,0,0,0,0,0,0,0,0,0,0,0,0,0,0,0,0,0,0,0,0,0,0,0,0,0,0,0,0,0,0,0,0,0,0,0,0,0,0,0,0,0,0,0,0,0,0,0,0],"split_type":[0,0,0,0,0,0,0,0,0,0,0,0,0,0,0,0,0,0,0,0,0,0,0,0,0,0,0,0,0,0,0,0,0,0,0,0,0,0,0,0,0,0,0,0,0,0,0,0,0,0,0,0,0,0,0,0,0,0,0,0,0,0,0,0,0,0,0,0,0,0,0,0,0,0,0,0,0,0,0,0,0,0,0,0,0,0,0,0,0,0,0,0,0,0,0,0,0,0,0,0,0,0,0,0,0,0,0,0,0,0,0,0,0,0,0,0,0,0,0,0,0,0,0,0,0,0,0],"sum_hessian":[2.2108E4,8.824E3,1.3284E4,3.819E3,5.005E3,7.356E3,5.928E3,1.395E3,2.424E3,2.504E3,2.501E3,4.23E3,3.126E3,3.13E3,2.798E3,1.44E2,1.251E3,2.021E3,4.03E2,9.48E2,1.556E3,2.23E3,2.71E2,7.9E1,4.151E3,5.54E2,2.572E3,1.799E3,1.331E3,1.564E3,1.234E3,6.4E1,8E1,9.32E2,3.19E2,1.876E3,1.45E2,2.11E2,1.92E2,9.16E2,3.2E1,1.378E3,1.78E2,1.875E3,3.55E2,1.51E2,1.2E2,1E1,6.9E1,4.8E1,4.103E3,2.79E2,2.75E2,1.556E3,1.016E3,1.663E3,1.36E2,1.64E2,1.167E3,4.88E2,1.076E3,1E2,1.134E3,5E1,1.4E1,3.8E1,4.2E1,3.35E2,5.97E2,6E0,3.13E2,1.554E3,3.22E2,9.7E1,4.8E1,1.46E2,6.5E1,1.22E2,7E1,3.1E1,8.85E2,2.4E1,8E0,6.01E2,7.77E2,3E1,1.48E2,1.52E3,3.55E2,3.12E2,4.3E1,7.2E1,7.9E1,4.9E1,7.1E1,4E0,6E0,6E1,9E0,3.3E1,1.5E1,2.772E3,1.331E3,2.49E2,3E1,6.5E1,2.1E2,1.034E3,5.22E2,7.9E1,9.37E2,1.618E3,4.5E1,9.4E1,4.2E1,1.46E2,1.8E1,2.66E2,9.01E2,7.4E1,4.14E2,4E0,1.072E3,3.5E1,6.5E1,4.4E1,1.09E3],"tree_param":{"num_deleted":"0","num_feature":"6","num_nodes":"127","size_leaf_vector":"1"}},{"base_weights":[-2.680547E-5,-1.00453295E-1,1.2520014E-1,-1.7344862E-1,-3.5544362E-2,6.989857E-2,1.8427686E-1,-2.1419175E-1,-1.389503E-1,-7.707165E-2,-1.0804868E-2,3.5885118E-2,9.9075355E-2,1.601272E-1,2.2177139E-1,-2.651457E-1,-2.0118296E-1,2.5464969E-2,-1.4393768E-1,-1.1341122E-1,-3.944905E-2,8.770506E-4,-9.464434E-2,2.1092424E-2,1.07263505E-1,1.6741844E-1,7.884574E-2,1.6365719E-1,-1.7150593E-1,2.1416229E-1,3.1377915E-1,-3.2471928E-1,-2.1631324E-1,-4.2281234E-1,-1.9821787E-1,-7.835163E-2,5.705347E-1,-3.2676005E-1,-1.3525724E-1,-6.900507E-3,-1.3589934E-1,-4.500789E-1,-3.0274544E-2,-2.4580302E-2,8.5232265E-2,3.750206E-1,-1.8409196E-1,-7.9621916E-4,9.085536E-2,2.2541487E-1,1.27908075E-2,1.7399488E-1,-2.6862833E-1,3.238667E-1,7.152712E-2,2.5349286E-1,1.5587364E-1,9.711059E-2,-3.9843193E-1,4.2731032E-1,2.1089794E-1,5.869503E-1,2.7125183E-1,-6.605603E-2,-1.2796375E-1,1.1495046E-2,-7.257545E-2,-1.4534016E-1,6.957467E-2,-6.684892E-2,-5.272203E-2,-6.161551E-2,7.803482E-2,3.6335513E-2,2.570064E-1,-1.12533435E-1,7.835519E-2,7.1254715E-2,-4.1260853E-2,1.7739557E-1,-1.2565364E-2,-6.936094E-2,-3.040882E-2,-2.9144557E-2,-2.3866092E-1,2.157399E-2,-1.8412834E-2,3.3190258E-2,-1.5187978E-2,3.8009804E-1,2.0337515E-2,2.1752918E-1,-7.969043E-2,-2.2523141E-1,-4.247736E-2,2.45432E-2,-1.2343808E-2,1.1923758E-1,1.5134692E-2,3.3795405E-3,1.1286965E-1,1.1018988E-1,-1.5671551E-2,7.7294335E-2,2.8805697E-2,1.6047956E-1,-1.44322505E-2,1.601057E-2,5.135186E-2,6.6876136E-2,2.1081223E-1,3.179197E-2,5.121395E-2,1.1676041E-1,-1.6947336E-1,-2.3612548E-1,-6.549042E-2,1.8450294E-1,2.527804E-2,2.7263528E-2,6.5433845E-2,2.4490756E-1,3.2948725E-2,6.9378703E-3,9.663294E-2],"categories":[],"categories_nodes":[],"categories_segments":[],"categories_sizes":[],"default_left":[1,0,0,0,0,0,0,0,0,0,1,0,0,1,0,1,0,0,0,0,0,1,0,1,0,1,0,0,0,0,0,0,0,0,0,0,0,0,0,0,0,0,0,1,0,1,0,0,0,0,0,1,0,0,0,1,0,0,0,1,0,0,0,0,0,0,0,0,0,0,0,0,0,0,0,0,0,0,0,0,0,0,0,0,0,0,0,0,0,0,0,0,0,0,0,0,0,0,0,0,0,0,0,0,0,0,0,0,0,0,0,0,0,0,0,0,0,0,0,0,0,0,0,0,0],"id":7,"left_children":[1,3,5,7,9,11,13,15,17,19,21,23,25,27,29,31,33,35,37,39,41,43,45,47,49,51,53,55,57,59,61,63,65,67,69,71,73,75,77,79,81,83,85,87,89,91,93,95,97,99,101,103,-1,105,107,109,111,113,115,117,119,121,123,-1,-1,-1,-1,-1,-1,-1,-1,-1,-1,-1,-1,-1,-1,-1,-1,-1,-1,-1,-1,-1,-1,-1,-1,-1,-1,-1,-1,-1,-1,-1,-1,-1,-1,-1,-1,-1,-1,-1,-1,-1,-1,-1,-1,-1,-1,-1,-1,-1,-1,-1,-1,-1,-1,-1,-1,-1,-1,-1,-1,-1,-1],"loss_changes":[2.780576E2,5.81297E1,3.213475E1,8.087402E0,6.672925E0,5.0418205E0,4.2718506E0,1.7005463E0,2.5702744E0,3.3109598E0,3.9882238E0,2.4779963E0,3.7694683E0,3.4194794E0,1.2356644E0,1.4861412E0,1.3041E0,5.30732E0,4.7770348E0,2.9523745E0,4.480795E0,7.679266E0,2.0990223E1,2.9731724E0,4.4954343E0,4.517397E0,3.7658958E0,1.96521E0,1.9283302E0,1.1080322E0,1.4672022E0,2.450039E0,1.9456453E0,1.2022681E0,1.1148605E0,3.4501631E0,1.8252692E0,3.9925938E0,2.4979591E0,4.5452404E0,3.32728E0,3.0926986E0,3.7165546E0,9.680084E0,1.7000263E1,1.8134888E1,9.985019E0,4.9464593E0,5.740707E0,5.777012E0,5.2062163E0,4.0259876E0,0E0,4.814892E0,3.7056112E0,2.9608727E0,1.937561E0,3.1204207E0,1.0183191E0,1.5579376E0,1.4505234E0,1.8805394E0,1.5447073E0,0E0,0E0,0E0,0E0,0E0,0E0,0E0,0E0,0E0,0E0,0E0,0E0,0E0,0E0,0E0,0E0,0E0,0E0,0E0,0E0,0E0,0E0,0E0,0E0,0E0,0E0,0E0,0E0,0E0,0E0,0E0,0E0,0E0,0E0,0E0,0E0,0E0,0E0,0E0,0E0,0E0,0E0,0E0,0E0,0E0,0E0,0E0,0E0,0E0,0E0,0E0,0E0,0E0,0E0,0E0,0E0,0E0,0E0,0E0,0E0,0E0,0E0],"parents":[2147483647,0,0,1,1,2,2,3,3,4,4,5,5,6,6,7,7,8,8,9,9,10,10,11,11,12,12,13,13,14,14,15,15,16,16,17,17,18,18,19,19,20,20,21,21,22,22,23,23,24,24,25,25,26,26,27,27,28,28,29,29,30,30,31,31,32,32,33,33,34,34,35,35,36,36,37,37,38,38,39,39,40,40,41,41,42,42,43,43,44,44,45,45,46,46,47,47,48,48,49,49,50,50,51,51,53,53,54,54,55,55,56,56,57,57,58,58,59,59,60,60,61,61,62,62],"right_children":[2,4,6,8,10,12,14,16,18,20,22,24,26,28,30,32,34,36,38,40,42,44,46,48,50,52,54,56,58,60,62,64,66,68,70,72,74,76,78,80,82,84,86,88,90,92,94,96,98,100,102,104,-1,106,108,110,112,114,116,118,120,122,124,-1,-1,-1,-1,-1,-1,-1,-1,-1,-1,-1,-1,-1,-1,-1,-1,-1,-1,-1,-1,-1,-1,-1,-1,-1,-1,-1,-1,-1,-1,-1,-1,-1,-1,-1,-1,-1,-1,-1,-1,-1,-1,-1,-1,-1,-1,-1,-1,-1,-1,-1,-1,-1,-1,-1,-1,-1,-1,-1,-1,-1,-1],"split_conditions":[5.028366E0,3.614348E0,6.674487E0,2.4321685E0,4.3888965E0,5.7598276E0,7.848743E0,1.0637763E0,3.808969E0,1.6E1,8.1262045E0,9E0,2.9E1,9.819528E0,9.614093E0,6.2733574E0,3.1952276E0,5.8922176E0,4.3811636E0,2.6E1,1.9E1,7.011169E0,5E0,4.363034E0,6.215865E0,8.602896E0,5.7931023E0,2.0756286E-1,5E0,3.3422189E0,4.721399E0,5.5685363E0,6.5441837E0,6E1,3.1627536E0,5.3E1,3.3422189E0,3.5946518E1,4.451787E0,3.93698E0,5.7135134E0,3.9045212E0,1.7570833E0,1.623018E-1,7.0259314E0,4.502866E0,1E0,3E0,4.5272613E0,5.209615E0,2.6E1,6.2305894E0,-2.6862833E-1,5.1E1,8.696338E0,8.610294E0,2.9E1,2.1E1,7E0,3.0581307E0,4.414501E0,4.0695457E0,5.8282046E0,-6.605603E-2,-1.2796375E-1,1.1495046E-2,-7.257545E-2,-1.4534016E-1,6.957467E-2,-6.684892E-2,-5.272203E-2,-6.161551E-2,7.803482E-2,3.6335513E-2,2.570064E-1,-1.12533435E-1,7.835519E-2,7.1254715E-2,-4.1260853E-2,1.7739557E-1,-1.2565364E-2,-6.936094E-2,-3.040882E-2,-2.9144557E-2,-2.3866092E-1,2.157399E-2,-1.8412834E-2,3.3190258E-2,-1.5187978E-2,3.8009804E-1,2.0337515E-2,2.1752918E-1,-7.969043E-2,-2.2523141E-1,-4.247736E-2,2.45432E-2,-1.2343808E-2,1.1923758E-1,1.5134692E-2,3.3795405E-3,1.1286965E-1,1.1018988E-1,-1.5671551E-2,7.7294335E-2,2.8805697E-2,1.6047956E-1,-1.44322505E-2,1.601057E-2,5.135186E-2,6.6876136E-2,2.1081223E-1,3.179197E-2,5.121395E-2,1.1676041E-1,-1.6947336E-1,-2.3612548E-1,-6.549042E-2,1.8450294E-1,2.527804E-2,2.7263528E-2,6.5433845E-2,2.4490756E-1,3.2948725E-2,6.9378703E-3,9.663294E-2],"split_indices":[0,0,0,0,0,0,0,0,4,1,4,5,3,4,0,4,4,2,4,3,3,4,1,2,4,2,0,2,5,4,4,4,4,3,2,3,4,2,4,4,4,0,2,2,4,0,5,5,2,4,3,4,0,3,4,4,3,1,1,2,4,2,4,0,0,0,0,0,0,0,0,0,0,0,0,0,0,0,0,0,0,0,0,0,0,0,0,0,0,0,0,0,0,0,0,0,0,0,0,0,0,0,0,0,0,0,0,0,0,0,0,0,0,0,0,0,0,0,0,0,0,0,0,0,0],"split_type":[0,0,0,0,0,0,0,0,0,0,0,0,0,0,0,0,0,0,0,0,0,0,0,0,0,0,0,0,0,0,0,0,0,0,0,0,0,0,0,0,0,0,0,0,0,0,0,0,0,0,0,0,0,0,0,0,0,0,0,0,0,0,0,0,0,0,0,0,0,0,0,0,0,0,0,0,0,0,0,0,0,0,0,0,0,0,0,0,0,0,0,0,0,0,0,0,0,0,0,0,0,0,0,0,0,0,0,0,0,0,0,0,0,0,0,0,0,0,0,0,0,0,0,0,0],"sum_hessian":[2.2108E4,1.2269E4,9.839E3,5.774E3,6.495E3,5.083E3,4.756E3,2.645E3,3.129E3,2.424E3,4.071E3,2.348E3,2.735E3,2.896E3,1.86E3,5.34E2,2.111E3,9.2E1,3.037E3,1.232E3,1.192E3,3.574E3,4.97E2,1.946E3,4.02E2,6.23E2,2.112E3,2.866E3,3E1,1.721E3,1.39E2,2.38E2,2.96E2,2.6E1,2.085E3,7.8E1,1.4E1,1.36E2,2.901E3,2.15E2,1.017E3,2.5E1,1.167E3,2.746E3,8.28E2,7.9E1,4.18E2,1.482E3,4.64E2,1.78E2,2.24E2,6.2E2,3E0,6E1,2.052E3,2.26E2,2.64E3,1.4E1,1.6E1,2.4E1,1.697E3,1.7E1,1.22E2,1.19E2,1.19E2,2.7E1,2.69E2,2.4E1,2E0,9.91E2,1.094E3,5.7E1,2.1E1,6E0,8E0,1.26E2,1E1,1.7E1,2.884E3,1.1E1,2.04E2,2.69E2,7.48E2,1.3E1,1.2E1,2.72E2,8.95E2,4.43E2,2.303E3,1.1E1,8.17E2,5.1E1,2.8E1,2.8E1,3.9E2,4.86E2,9.96E2,5.3E1,4.11E2,7.4E1,1.04E2,3.4E1,1.9E2,2.98E2,3.22E2,3.8E1,2.2E1,1.737E3,3.15E2,2.13E2,1.3E1,6.07E2,2.033E3,1E1,4E0,4E0,1.2E1,1.5E1,9E0,9.7E1,1.6E3,1.1E1,6E0,2.1E1,1.01E2],"tree_param":{"num_deleted":"0","num_feature":"6","num_nodes":"125","size_leaf_vector":"1"}},{"base_weights":[2.8370872E-5,-8.9042045E-2,6.944394E-2,-1.3361193E-1,-5.2395143E-2,1.6512042E-2,1.1451759E-1,-1.589681E-1,-1.13257326E-1,-7.363469E-2,-2.5454277E-2,7.685518E-2,3.560464E-3,8.679213E-2,1.4364898E-1,-1.5617551E-1,-4.0711972E-1,-7.3353564E-3,-1.22147895E-1,-5.721884E-2,-1.2245404E-1,-3.2246433E-2,1.4123021E-1,3.1614214E-1,1.3647172E-2,-1.7248859E-1,1.0638981E-2,9.738389E-2,2.093279E-2,1.3213989E-1,1.8111394E-1,-2.279635E-1,-1.5032382E-1,-2.4071379E-1,-2.674428E-1,-1.3915743E-1,1.3316354E-1,-2.5008804E-1,-1.05139576E-1,-9.277213E-2,3.8846474E-2,-2.1153067E-1,-5.4097235E-2,-2.5426554E-2,-2.038752E-1,8.772505E-3,5.886457E-1,3.7221903E-1,-2.0894477E-1,1.6594094E-1,-4.8095822E-2,-2.720816E-1,3.623326E-1,-1.9981131E-2,3.9995763E-2,7.842101E-2,1.4113334E-1,-2.2877477E-1,4.869388E-2,1.1987445E-1,1.6949733E-1,3.0420288E-1,1.6691649E-1,-4.3017212E-2,-9.497601E-2,-5.300203E-2,-3.94919E-2,1.06383925E-2,-9.852556E-2,-6.138621E-2,1.8686454E-1,5.219186E-2,-1.8351395E-1,-1.2470388E-1,-5.5544935E-2,-2.4215585E-2,-5.2090697E-2,-3.1631593E-2,2.3784047E-2,8.462297E-2,5.322109E-3,-1.2750515E-1,-5.1583722E-2,6.549154E-2,-3.0406453E-2,-9.298875E-3,6.639906E-2,9.3678966E-2,-1.126295E-1,3.7357327E-2,-6.837596E-2,-6.618424E-2,2.0563267E-1,2.2381786E-1,6.6970915E-2,-3.0771375E-1,1.4673212E-1,1.1785047E-1,1.1530995E-2,-9.0955004E-2,6.180377E-3,-8.735413E-3,-1.6030544E-1,2.2917566E-1,-2.3619632E-1,5.046323E-3,-2.5390435E-2,6.502086E-2,2.24607E-3,3.890586E-2,6.0115545E-3,3.8941642E-3,5.539885E-2,-2.2636706E-1,-2.6427854E-2,-2.5394632E-2,3.1969488E-2,3.9621845E-2,1.4015697E-3,5.7587624E-2,-2.0471545E-2,3.3149477E-2,1.377899E-1,5.174461E-2,-4.8433926E-2],"categories":[],"categories_nodes":[],"categories_segments":[],"categories_sizes":[],"default_left":[0,0,1,0,0,1,0,1,0,1,1,0,0,1,0,0,0,0,0,1,0,1,1,0,1,0,0,1,0,0,0,0,0,0,0,0,0,1,0,0,0,0,0,1,1,0,0,1,1,1,0,0,1,0,0,0,0,0,0,0,0,0,1,0,0,0,0,0,0,0,0,0,0,0,0,0,0,0,0,0,0,0,0,0,0,0,0,0,0,0,0,0,0,0,0,0,0,0,0,0,0,0,0,0,0,0,0,0,0,0,0,0,0,0,0,0,0,0,0,0,0,0,0,0,0],"id":8,"left_children":[1,3,5,7,9,11,13,15,17,19,21,23,25,27,29,31,33,35,37,39,41,43,45,47,49,51,53,55,57,59,61,63,65,67,-1,69,71,73,75,77,79,81,83,85,87,89,91,93,95,97,99,101,103,105,107,109,111,113,115,117,119,121,123,-1,-1,-1,-1,-1,-1,-1,-1,-1,-1,-1,-1,-1,-1,-1,-1,-1,-1,-1,-1,-1,-1,-1,-1,-1,-1,-1,-1,-1,-1,-1,-1,-1,-1,-1,-1,-1,-1,-1,-1,-1,-1,-1,-1,-1,-1,-1,-1,-1,-1,-1,-1,-1,-1,-1,-1,-1,-1,-1,-1,-1,-1],"loss_changes":[1.3670332E2,1.58103485E1,2.9644482E1,2.2369003E0,3.0400038E0,4.467003E0,5.4078903E0,1.2828903E0,2.284628E0,2.3747864E0,2.6594386E0,1.5271786E1,5.8675394E0,2.398285E0,1.3864746E0,7.735481E-1,1.4780042E0,3.5189724E0,4.845875E0,7.60637E0,4.537036E0,2.633095E0,5.4470897E0,6.29072E0,7.5304394E0,9.792717E0,4.0692563E0,2.4479122E0,3.3247097E0,1.1279488E0,1.2878475E0,1.0264044E0,8.535652E-1,4.234178E-1,0E0,5.0162406E0,2.9030294E0,2.7403831E0,3.2946644E0,3.5497217E0,3.0854478E0,2.6649961E0,5.4803143E0,2.9878478E0,7.7322655E0,2.0010085E0,1.7962222E0,1.0471336E1,1.2474752E1,6.6677203E0,9.994793E0,9.797631E0,1.3990315E1,5.274167E0,1.3276529E1,6.1928864E0,4.9902954E0,3.4839952E0,3.3349104E0,2.655367E0,3.307804E0,2.2926002E0,1.2870064E0,0E0,0E0,0E0,0E0,0E0,0E0,0E0,0E0,0E0,0E0,0E0,0E0,0E0,0E0,0E0,0E0,0E0,0E0,0E0,0E0,0E0,0E0,0E0,0E0,0E0,0E0,0E0,0E0,0E0,0E0,0E0,0E0,0E0,0E0,0E0,0E0,0E0,0E0,0E0,0E0,0E0,0E0,0E0,0E0,0E0,0E0,0E0,0E0,0E0,0E0,0E0,0E0,0E0,0E0,0E0,0E0,0E0,0E0,0E0,0E0,0E0,0E0],"parents":[2147483647,0,0,1,1,2,2,3,3,4,4,5,5,6,6,7,7,8,8,9,9,10,10,11,11,12,12,13,13,14,14,15,15,16,16,17,17,18,18,19,19,20,20,21,21,22,22,23,23,24,24,25,25,26,26,27,27,28,28,29,29,30,30,31,31,32,32,33,33,35,35,36,36,37,37,38,38,39,39,40,40,41,41,42,42,43,43,44,44,45,45,46,46,47,47,48,48,49,49,50,50,51,51,52,52,53,53,54,54,55,55,56,56,57,57,58,58,59,59,60,60,61,61,62,62],"right_children":[2,4,6,8,10,12,14,16,18,20,22,24,26,28,30,32,34,36,38,40,42,44,46,48,50,52,54,56,58,60,62,64,66,68,-1,70,72,74,76,78,80,82,84,86,88,90,92,94,96,98,100,102,104,106,108,110,112,114,116,118,120,122,124,-1,-1,-1,-1,-1,-1,-1,-1,-1,-1,-1,-1,-1,-1,-1,-1,-1,-1,-1,-1,-1,-1,-1,-1,-1,-1,-1,-1,-1,-1,-1,-1,-1,-1,-1,-1,-1,-1,-1,-1,-1,-1,-1,-1,-1,-1,-1,-1,-1,-1,-1,-1,-1,-1,-1,-1,-1,-1,-1,-1,-1,-1],"split_conditions":[4.8312187E0,3.1203823E0,6.0120015E0,2.111534E0,4.1201286E0,4.5680685E0,7.232672E0,7.947035E0,1.623018E-1,4.1936145E0,9.052144E0,2E0,4.812595E0,8.006102E0,8.619669E0,3.3191982E-1,1.8031316E0,3.9E1,1.3062831E0,3.0189536E0,5.030326E0,8.49101E0,4.4735823E0,6.3E1,1.253814E0,2.7E1,4.1E1,6.781122E0,1E0,5.5E1,1E0,2.9412875E0,2.8286672E0,7E0,-2.674428E-1,3E1,3.1E1,5.131369E0,2.4E1,6.3E1,3E0,5E0,5.3136964E0,8.326275E0,1.7776959E0,3.5532677E0,1.9E1,4.860233E0,5.1026125E0,4.8778048E0,2.3019395E0,1.3E1,5.068882E0,3.3E1,4.5E1,1.7E1,8E0,2.7E1,2.1439931E0,5.1E1,2.9E1,6.884719E0,9.688732E0,-4.3017212E-2,-9.497601E-2,-5.300203E-2,-3.94919E-2,1.06383925E-2,-9.852556E-2,-6.138621E-2,1.8686454E-1,5.219186E-2,-1.8351395E-1,-1.2470388E-1,-5.5544935E-2,-2.4215585E-2,-5.2090697E-2,-3.1631593E-2,2.3784047E-2,8.462297E-2,5.322109E-3,-1.2750515E-1,-5.1583722E-2,6.549154E-2,-3.0406453E-2,-9.298875E-3,6.639906E-2,9.3678966E-2,-1.126295E-1,3.7357327E-2,-6.837596E-2,-6.618424E-2,2.0563267E-1,2.2381786E-1,6.6970915E-2,-3.0771375E-1,1.4673212E-1,1.1785047E-1,1.1530995E-2,-9.0955004E-2,6.180377E-3,-8.735413E-3,-1.6030544E-1,2.2917566E-1,-2.3619632E-1,5.046323E-3,-2.5390435E-2,6.502086E-2,2.24607E-3,3.890586E-2,6.0115545E-3,3.8941642E-3,5.539885E-2,-2.2636706E-1,-2.6427854E-2,-2.5394632E-2,3.1969488E-2,3.9621845E-2,1.4015697E-3,5.7587624E-2,-2.0471545E-2,3.3149477E-2,1.377899E-1,5.174461E-2,-4.8433926E-2],"split_indices":[0,0,0,0,0,4,0,2,2,2,4,5,4,4,0,0,0,3,2,2,2,4,2,3,2,1,3,4,5,3,5,2,2,1,0,1,1,4,1,3,1,1,2,4,2,2,3,0,0,0,2,1,2,3,3,1,1,3,2,3,1,4,4,0,0,0,0,0,0,0,0,0,0,0,0,0,0,0,0,0,0,0,0,0,0,0,0,0,0,0,0,0,0,0,0,0,0,0,0,0,0,0,0,0,0,0,0,0,0,0,0,0,0,0,0,0,0,0,0,0,0,0,0,0,0],"split_type":[0,0,0,0,0,0,0,0,0,0,0,0,0,0,0,0,0,0,0,0,0,0,0,0,0,0,0,0,0,0,0,0,0,0,0,0,0,0,0,0,0,0,0,0,0,0,0,0,0,0,0,0,0,0,0,0,0,0,0,0,0,0,0,0,0,0,0,0,0,0,0,0,0,0,0,0,0,0,0,0,0,0,0,0,0,0,0,0,0,0,0,0,0,0,0,0,0,0,0,0,0,0,0,0,0,0,0,0,0,0,0,0,0,0,0,0,0,0,0,0,0,0,0,0,0],"sum_hessian":[2.2108E4,9.683E3,1.2425E4,4.368E3,5.315E3,5.715E3,6.71E3,1.942E3,2.426E3,2.971E3,2.344E3,1.009E3,4.706E3,3.44E3,3.27E3,1.922E3,2E1,1.88E2,2.238E3,2.225E3,7.46E2,2.253E3,9.1E1,2.1E2,7.99E2,1.81E2,4.525E3,2.963E3,4.77E2,2.505E3,7.65E2,1.42E2,1.78E3,1.6E1,4E0,9.7E1,9.1E1,2.61E2,1.977E3,1.624E3,6.01E2,3.23E2,4.23E2,2.168E3,8.5E1,7.1E1,2E1,1.9E2,2E1,2.3E2,5.69E2,1.53E2,2.8E1,2.215E3,2.31E3,2.069E3,8.94E2,4.7E1,4.3E2,1.889E3,6.16E2,7.7E1,6.88E2,7.4E1,6.8E1,7.35E2,1.045E3,4E0,1.2E1,9E1,7E0,8.7E1,4E0,7.2E1,1.89E2,1.459E3,5.18E2,1.513E3,1.11E2,4.7E1,5.54E2,4.9E1,2.74E2,6.2E1,3.61E2,2.121E3,4.7E1,2.1E1,6.4E1,4.8E1,2.3E1,2E0,1.8E1,5.3E1,1.37E2,9E0,1.1E1,8.2E1,1.48E2,1.2E2,4.49E2,8E1,7.3E1,2.1E1,7E0,1.412E3,8.03E2,3.58E2,1.952E3,1.101E3,9.68E2,2.27E2,6.67E2,9E0,3.8E1,1.3E2,3E2,1.708E3,1.81E2,5.63E2,5.3E1,3.5E1,4.2E1,6.77E2,1.1E1],"tree_param":{"num_deleted":"0","num_feature":"6","num_nodes":"125","size_leaf_vector":"1"}},{"base_weights":[-7.6077868E-6,-5.096034E-2,6.3527964E-2,-8.595066E-2,-1.9845802E-2,3.7527855E-2,9.221011E-2,-1.0655105E-1,-6.8508305E-2,-4.1785408E-2,2.48834E-3,-9.81607E-2,4.2111207E-2,2.1623406E-1,8.788371E-2,-8.299787E-2,-1.2106436E-1,-6.434955E-2,-2.0668536E-1,-1.1002266E-1,-1.0056845E-2,5.9084713E-2,-3.307879E-2,-3.43612E-1,-1.9388111E-2,1.8685995E-2,6.9818094E-2,2.5979525E-1,-3.8555935E-1,-1.6733684E-1,9.240093E-2,-1.0686056E-1,1.5643988E-2,-2.1674407E-1,-1.1096887E-1,-7.199305E-2,1.6871805E-4,-2.6352766E-1,3.4049213E-1,8.116732E-2,-1.5121439E-1,1.894777E-2,-1.7258991E-1,4.9413756E-1,3.0725893E-2,-1.0255472E-1,1.205024E-2,3.5323303E-2,-4.8373237E-1,8.6836946E-1,-7.74428E-2,2.3843676E-2,-2.8706405E-1,1.6547023E-1,5.847582E-2,8.397195E-2,3.4685E-1,3.3436382E-1,-6.97326E-1,-4.5216677E-1,-1.12960294E-1,8.19797E-2,1.1941287E-1,-3.3752594E-2,9.485715E-2,1.9813754E-2,-9.180418E-2,-9.0479344E-2,3.5651226E-2,-3.6448203E-2,-3.4918063E-3,-2.3291197E-2,1.431554E-2,-2.6666762E-2,4.0961206E-2,-1.17274515E-1,-1.7601186E-2,1.9737682E-1,-1.54103E-1,-3.1481278E-3,1.09970495E-1,-5.158857E-2,6.795691E-2,2.3625602E-1,4.2166E-3,-2.9715404E-2,-2.1594435E-1,2.1226773E-2,3.916835E-1,2.3938501E-2,-4.9328543E-2,4.7400326E-2,-4.423771E-2,1.9236188E-1,-2.3670208E-4,1.7733374E-1,-4.0483736E-2,-2.3076196E-1,-6.605435E-2,1.4698411E-2,3.3999857E-1,-2.5700086E-1,-1.3130529E-2,-3.702018E-4,2.635307E-2,-2.1891133E-1,1.0516692E-2,-9.212813E-3,6.824291E-2,5.502618E-3,3.0879179E-2,9.709618E-2,-1.828901E-2,1.7376655E-1,6.9206886E-2,2.1793772E-2,1.1921635E-1,1.1184121E-2,-2.8452247E-1,-4.8497718E-2,1.4707543E-1,3.0009946E-2,1.709045E-2,3.3351265E-2,7.416623E-2],"categories":[],"categories_nodes":[],"categories_segments":[],"categories_sizes":[],"default_left":[1,0,0,0,0,0,0,1,0,1,1,0,0,1,0,1,0,0,0,1,0,0,0,0,0,1,0,0,0,0,0,1,0,0,0,1,0,0,1,1,0,0,0,0,0,0,0,0,1,0,0,0,0,0,1,0,1,0,0,0,0,0,0,0,0,0,0,0,0,0,0,0,0,0,0,0,0,0,0,0,0,0,0,0,0,0,0,0,0,0,0,0,0,0,0,0,0,0,0,0,0,0,0,0,0,0,0,0,0,0,0,0,0,0,0,0,0,0,0,0,0,0,0,0,0],"id":9,"left_children":[1,3,5,7,9,11,13,15,17,19,21,23,25,27,29,31,33,35,37,39,41,43,45,47,49,51,53,55,57,59,61,63,65,67,69,71,73,75,77,79,81,83,85,87,89,91,93,95,97,99,101,103,105,107,109,111,113,115,117,-1,119,121,123,-1,-1,-1,-1,-1,-1,-1,-1,-1,-1,-1,-1,-1,-1,-1,-1,-1,-1,-1,-1,-1,-1,-1,-1,-1,-1,-1,-1,-1,-1,-1,-1,-1,-1,-1,-1,-1,-1,-1,-1,-1,-1,-1,-1,-1,-1,-1,-1,-1,-1,-1,-1,-1,-1,-1,-1,-1,-1,-1,-1,-1,-1],"loss_changes":[7.157695E1,1.3356735E1,7.334614E0,2.067772E0,3.1831586E0,3.215047E0,2.4911041E0,8.944473E-1,1.7853394E0,7.0938277E0,6.4837193E0,3.2609248E0,3.2406483E0,4.2158937E0,5.228821E0,2.3837786E0,1.5552483E0,1.4991751E0,2.9200866E0,8.202739E0,1.0553671E1,1.5320435E1,6.20302E0,2.194046E0,6.7157145E0,4.277256E0,2.4726048E0,2.2208948E0,2.7020888E0,5.585553E0,1.2411842E0,1.982955E0,3.2302175E0,4.449519E0,1.5469074E0,1.8402138E0,3.9348762E0,2.1430492E0,2.7782135E0,4.843477E0,6.7475166E0,7.133297E0,1.3570777E1,2.6018427E1,1.1197948E1,9.13766E0,9.693973E0,1.2153726E0,2.087747E0,1.6812797E0,3.1637816E0,4.275746E0,6.441824E0,2.9507556E0,3.6502404E0,1.7566504E0,2.5116358E0,3.7109405E-2,1.5109303E0,0E0,2.341179E0,1.443758E0,1.2734547E0,0E0,0E0,0E0,0E0,0E0,0E0,0E0,0E0,0E0,0E0,0E0,0E0,0E0,0E0,0E0,0E0,0E0,0E0,0E0,0E0,0E0,0E0,0E0,0E0,0E0,0E0,0E0,0E0,0E0,0E0,0E0,0E0,0E0,0E0,0E0,0E0,0E0,0E0,0E0,0E0,0E0,0E0,0E0,0E0,0E0,0E0,0E0,0E0,0E0,0E0,0E0,0E0,0E0,0E0,0E0,0E0,0E0,0E0,0E0,0E0,0E0,0E0],"parents":[2147483647,0,0,1,1,2,2,3,3,4,4,5,5,6,6,7,7,8,8,9,9,10,10,11,11,12,12,13,13,14,14,15,15,16,16,17,17,18,18,19,19,20,20,21,21,22,22,23,23,24,24,25,25,26,26,27,27,28,28,29,29,30,30,31,31,32,32,33,33,34,34,35,35,36,36,37,37,38,38,39,39,40,40,41,41,42,42,43,43,44,44,45,45,46,46,47,47,48,48,49,49,50,50,51,51,52,52,53,53,54,54,55,55,56,56,57,57,58,58,60,60,61,61,62,62],"right_children":[2,4,6,8,10,12,14,16,18,20,22,24,26,28,30,32,34,36,38,40,42,44,46,48,50,52,54,56,58,60,62,64,66,68,70,72,74,76,78,80,82,84,86,88,90,92,94,96,98,100,102,104,106,108,110,112,114,116,118,-1,120,122,124,-1,-1,-1,-1,-1,-1,-1,-1,-1,-1,-1,-1,-1,-1,-1,-1,-1,-1,-1,-1,-1,-1,-1,-1,-1,-1,-1,-1,-1,-1,-1,-1,-1,-1,-1,-1,-1,-1,-1,-1,-1,-1,-1,-1,-1,-1,-1,-1,-1,-1,-1,-1,-1,-1,-1,-1,-1,-1,-1,-1,-1,-1],"split_conditions":[5.028366E0,3.614348E0,6.70907E0,2.4321685E0,1.6E1,1E0,6.756891E0,2.0400305E0,6.5E1,1.637569E0,5.7983317E0,5.4245257E0,6E0,8.610294E0,6.785042E0,1.5499963E0,2.4225075E0,6E1,3.4838834E0,4.662997E0,8.648644E0,1.7E1,6.797056E0,3.3E1,5.4954066E0,9.819528E0,4.6314347E-1,4E0,1.3888549E0,3.6541638E0,8.220099E0,9.819528E0,5.9E1,7.9575076E0,2.9E1,8.881656E0,6E0,6E0,3.4589584E0,4.2576685E0,8.992904E0,1.6592966E0,6.1E1,5.004543E0,5.6E1,1.0994303E0,6.8258686E0,1E0,2.2402644E0,1.5955192E0,1.9E1,7.6491227E0,2.9060616E0,9E0,3.2397876E0,2.5179875E0,5.147772E0,6.733677E0,4E0,-4.5216677E-1,3E1,7.039169E0,3E1,-3.3752594E-2,9.485715E-2,1.9813754E-2,-9.180418E-2,-9.0479344E-2,3.5651226E-2,-3.6448203E-2,-3.4918063E-3,-2.3291197E-2,1.431554E-2,-2.6666762E-2,4.0961206E-2,-1.17274515E-1,-1.7601186E-2,1.9737682E-1,-1.54103E-1,-3.1481278E-3,1.09970495E-1,-5.158857E-2,6.795691E-2,2.3625602E-1,4.2166E-3,-2.9715404E-2,-2.1594435E-1,2.1226773E-2,3.916835E-1,2.3938501E-2,-4.9328543E-2,4.7400326E-2,-4.423771E-2,1.9236188E-1,-2.3670208E-4,1.7733374E-1,-4.0483736E-2,-2.3076196E-1,-6.605435E-2,1.4698411E-2,3.3999857E-1,-2.5700086E-1,-1.3130529E-2,-3.702018E-4,2.635307E-2,-2.1891133E-1,1.0516692E-2,-9.212813E-3,6.824291E-2,5.502618E-3,3.0879179E-2,9.709618E-2,-1.828901E-2,1.7376655E-1,6.9206886E-2,2.1793772E-2,1.1921635E-1,1.1184121E-2,-2.8452247E-1,-4.8497718E-2,1.4707543E-1,3.0009946E-2,1.709045E-2,3.3351265E-2,7.416623E-2],"split_indices":[0,0,0,0,1,1,0,2,3,2,4,0,5,4,0,2,2,3,0,4,4,1,4,3,0,4,2,5,2,4,0,4,3,4,1,4,5,5,2,4,4,2,3,0,3,2,4,5,2,2,3,4,2,1,2,2,4,0,5,0,1,4,1,0,0,0,0,0,0,0,0,0,0,0,0,0,0,0,0,0,0,0,0,0,0,0,0,0,0,0,0,0,0,0,0,0,0,0,0,0,0,0,0,0,0,0,0,0,0,0,0,0,0,0,0,0,0,0,0,0,0,0,0,0,0],"split_type":[0,0,0,0,0,0,0,0,0,0,0,0,0,0,0,0,0,0,0,0,0,0,0,0,0,0,0,0,0,0,0,0,0,0,0,0,0,0,0,0,0,0,0,0,0,0,0,0,0,0,0,0,0,0,0,0,0,0,0,0,0,0,0,0,0,0,0,0,0,0,0,0,0,0,0,0,0,0,0,0,0,0,0,0,0,0,0,0,0,0,0,0,0,0,0,0,0,0,0,0,0,0,0,0,0,0,0,0,0,0,0,0,0,0,0,0,0,0,0,0,0,0,0,0,0],"sum_hessian":[2.2108E4,1.2269E4,9.839E3,5.774E3,6.495E3,5.162E3,4.677E3,2.645E3,3.129E3,3.276E3,3.219E3,1.68E2,4.994E3,1.56E2,4.521E3,1.011E3,1.634E3,3.039E3,9E1,1.039E3,2.237E3,1.242E3,1.977E3,4E1,1.28E2,2.707E3,2.287E3,1.46E2,1E1,7.8E1,4.443E3,8.14E2,1.97E2,1.54E2,1.48E3,2.717E3,3.22E2,8.2E1,8E0,1.84E2,8.55E2,1.899E3,3.38E2,7.5E1,1.167E3,7.78E2,1.199E3,1.1E1,2.9E1,7E0,1.21E2,2.663E3,4.4E1,2.41E2,2.046E3,4.9E1,9.7E1,3E0,7E0,2E0,7.6E1,3.209E3,1.234E3,8.04E2,1E1,1.71E2,2.6E1,1.23E2,3.1E1,1.338E3,1.42E2,2.595E3,1.22E2,1.95E2,1.27E2,5E1,3.2E1,6E0,2E0,1.4E2,4.4E1,8.11E2,4.4E1,1.1E1,1.888E3,2.99E2,3.9E1,5E1,2.5E1,9.33E2,2.34E2,1.14E2,6.64E2,2.3E1,1.176E3,2E0,9E0,1.3E1,1.6E1,2E0,5E0,4E0,1.17E2,1.914E3,7.49E2,1.8E1,2.6E1,5.8E1,1.83E2,1.076E3,9.7E2,1.8E1,3.1E1,3.1E1,6.6E1,1E0,2E0,2E0,5E0,7.1E1,5E0,1.862E3,1.347E3,1.161E3,7.3E1],"tree_param":{"num_deleted":"0","num_feature":"6","num_nodes":"125","size_leaf_vector":"1"}},{"base_weights":[9.8977225E-6,-3.161082E-2,5.055325E-2,-5.4739397E-2,-4.495624E-3,3.5479743E-2,7.052347E-2,-8.923953E-2,-4.7725238E-2,-8.79172E-3,9.3921795E-2,2.5211915E-2,8.016117E-2,6.549793E-2,1.359708E-1,-7.194224E-2,-1.6020425E-1,-4.0978853E-2,-9.193977E-2,-5.6409203E-3,-3.9943898E-1,2.9748762E-1,-1.2522394E-2,5.351651E-2,7.4177263E-3,8.784493E-2,-4.1567907E-1,7.0592575E-2,-5.8239836E-2,5.990707E-1,1.1114713E-1,-1.5045564E-1,-5.448152E-2,-3.0379838E-1,-1.132898E-1,-4.4586223E-2,2.073772E-1,-4.6084893E-1,-6.0082074E-2,5.10924E-2,-1.3566218E-2,-1.8405899E0,-1.4973669E-1,-2.7408564E-2,7.855932E-1,-2.5025415E-1,1.0955322E-1,1.00217625E-1,-3.5969786E-2,-3.6588937E-2,6.360707E-2,2.2723073E-1,6.674328E-2,-6.7406464E-1,4.1179102E-2,6.60169E-2,1.9104317E-1,-3.8971803E-1,-5.863535E-4,8.350983E-1,5.440693E-2,1.3430326E-1,-1.5954784E-1,-8.422654E-3,-7.0448995E-2,1.4030465E-2,-2.1034015E-2,-1.2396216E-1,-2.756398E-3,7.953616E-2,-4.027976E-2,-2.1468505E-2,-9.72923E-3,8.209644E-2,-9.49286E-2,9.343233E-2,-1.5525769E-1,-2.2568515E-2,6.469363E-2,-2.3010802E-2,4.4159777E-2,-3.0523071E-2,-1.3135801E-3,-7.548308E-2,-6.1904544E-1,-1.13980226E-1,2.6282817E-1,7.857017E-2,-1.5248561E-1,2.769224E-1,-3.1031817E-1,-1.9417451E-1,9.868945E-4,1.8898377E-1,-1.2599911E-2,4.321024E-2,-4.7944942E-3,-1.06939845E-1,-6.154207E-3,6.641807E-3,-2.7163252E-2,7.173379E-2,1.34913E-2,1.3707711E-1,4.4950146E-2,-4.6024747E-2,2.766982E-2,-2.449992E-1,-8.749484E-2,-4.1562513E-2,4.970248E-2,2.4169805E-2,4.478313E-3,2.6199462E-2,1.3760267E-1,1.0996385E-1,-1.4823332E-1,-3.3365462E-2,3.358892E-2,3.141381E-1,1.3681498E-1,1.805759E-1,-1.5337244E-1,3.2960813E-2,1.975255E-1,-9.420501E-2,7.596467E-2],"categories":[],"categories_nodes":[],"categories_segments":[],"categories_sizes":[],"default_left":[1,0,0,0,1,0,1,1,1,1,0,0,0,1,0,0,0,1,0,0,0,0,0,1,0,0,0,0,0,0,1,0,0,0,0,0,0,0,0,0,0,0,0,0,1,0,0,0,0,1,0,1,0,0,0,0,0,0,0,0,0,1,0,0,0,0,0,0,0,0,0,0,0,0,0,0,0,0,0,0,0,0,0,0,0,0,0,0,0,0,0,0,0,0,0,0,0,0,0,0,0,0,0,0,0,0,0,0,0,0,0,0,0,0,0,0,0,0,0,0,0,0,0,0,0,0,0],"id":10,"left_children":[1,3,5,7,9,11,13,15,17,19,21,23,25,27,29,31,33,35,37,39,41,43,45,47,49,51,53,55,57,59,61,63,65,67,69,71,73,75,77,79,81,83,85,87,89,91,93,95,97,99,101,103,105,107,109,111,113,115,117,119,121,123,125,-1,-1,-1,-1,-1,-1,-1,-1,-1,-1,-1,-1,-1,-1,-1,-1,-1,-1,-1,-1,-1,-1,-1,-1,-1,-1,-1,-1,-1,-1,-1,-1,-1,-1,-1,-1,-1,-1,-1,-1,-1,-1,-1,-1,-1,-1,-1,-1,-1,-1,-1,-1,-1,-1,-1,-1,-1,-1,-1,-1,-1,-1,-1,-1],"loss_changes":[3.533658E1,8.5294285E0,2.5588875E0,1.771944E0,2.648466E0,2.223526E0,1.1945667E0,1.5093441E0,1.8163862E0,7.384084E0,5.6808453E0,1.9870348E0,3.4883032E0,2.1474686E0,2.9223337E0,1.359961E0,1.5958495E0,4.753998E0,9.4566555E0,2.677781E0,1.699761E1,1.429406E1,5.0480924E0,6.3683896E0,5.9961653E0,2.6113882E0,1.6803949E0,1.7874184E0,2.579739E0,1.6257882E0,1.5759528E0,1.8623662E0,1.2979455E0,1.8979487E0,1.4961085E0,1.7096405E0,2.7250528E0,2.962513E0,3.1233544E0,8.977138E0,4.232535E0,1.9600334E0,1.0250884E1,7.784833E0,9.962542E0,5.9407983E0,9.096166E0,5.098837E0,2.5833764E0,4.311435E0,3.472579E0,2.011507E0,4.374467E0,2.5260973E-1,1.5719983E-1,2.3387146E0,3.262978E0,1.7600884E0,1.4568322E0,2.4577999E-1,1.8562247E0,2.8602724E0,1.3546954E0,0E0,0E0,0E0,0E0,0E0,0E0,0E0,0E0,0E0,0E0,0E0,0E0,0E0,0E0,0E0,0E0,0E0,0E0,0E0,0E0,0E0,0E0,0E0,0E0,0E0,0E0,0E0,0E0,0E0,0E0,0E0,0E0,0E0,0E0,0E0,0E0,0E0,0E0,0E0,0E0,0E0,0E0,0E0,0E0,0E0,0E0,0E0,0E0,0E0,0E0,0E0,0E0,0E0,0E0,0E0,0E0,0E0,0E0,0E0,0E0,0E0,0E0,0E0,0E0],"parents":[2147483647,0,0,1,1,2,2,3,3,4,4,5,5,6,6,7,7,8,8,9,9,10,10,11,11,12,12,13,13,14,14,15,15,16,16,17,17,18,18,19,19,20,20,21,21,22,22,23,23,24,24,25,25,26,26,27,27,28,28,29,29,30,30,31,31,32,32,33,33,34,34,35,35,36,36,37,37,38,38,39,39,40,40,41,41,42,42,43,43,44,44,45,45,46,46,47,47,48,48,49,49,50,50,51,51,52,52,53,53,54,54,55,55,56,56,57,57,58,58,59,59,60,60,61,61,62,62],"right_children":[2,4,6,8,10,12,14,16,18,20,22,24,26,28,30,32,34,36,38,40,42,44,46,48,50,52,54,56,58,60,62,64,66,68,70,72,74,76,78,80,82,84,86,88,90,92,94,96,98,100,102,104,106,108,110,112,114,116,118,120,122,124,126,-1,-1,-1,-1,-1,-1,-1,-1,-1,-1,-1,-1,-1,-1,-1,-1,-1,-1,-1,-1,-1,-1,-1,-1,-1,-1,-1,-1,-1,-1,-1,-1,-1,-1,-1,-1,-1,-1,-1,-1,-1,-1,-1,-1,-1,-1,-1,-1,-1,-1,-1,-1,-1,-1,-1,-1,-1,-1,-1,-1,-1,-1,-1,-1],"split_conditions":[5.4245257E0,4.1201286E0,7.082325E0,1.6914761E0,9.052144E0,5.7E1,8.610294E0,4.623817E0,8.052002E0,8.936725E0,9.348128E0,3.3E1,7.0519934E0,8.270876E0,8.648644E0,2E0,5.030326E0,7.984763E0,8.1262045E0,2.4E1,2.3E1,1.9E1,1.9542383E0,7.0259314E0,6.897776E0,5.0107265E0,1.4E1,3.1E1,7.3270617E0,7.974325E0,6.1340756E0,1E0,4E0,5.7E1,5.101593E0,5.667389E0,1E1,1.9E1,6.4E1,6.170752E0,2.8E1,4.810893E0,5.9466352E0,1.4E1,6.7839165E0,3.6E1,3.2906778E0,4.5541058E0,7.091655E0,2.5179875E0,1E0,3.0380338E-1,5.4811573E0,8E0,4.2303675E-1,2.4E1,8E0,7.1105566E0,3.6731398E0,7.656305E0,2.5E1,5.619653E0,7.189937E0,-8.422654E-3,-7.0448995E-2,1.4030465E-2,-2.1034015E-2,-1.2396216E-1,-2.756398E-3,7.953616E-2,-4.027976E-2,-2.1468505E-2,-9.72923E-3,8.209644E-2,-9.49286E-2,9.343233E-2,-1.5525769E-1,-2.2568515E-2,6.469363E-2,-2.3010802E-2,4.4159777E-2,-3.0523071E-2,-1.3135801E-3,-7.548308E-2,-6.1904544E-1,-1.13980226E-1,2.6282817E-1,7.857017E-2,-1.5248561E-1,2.769224E-1,-3.1031817E-1,-1.9417451E-1,9.868945E-4,1.8898377E-1,-1.2599911E-2,4.321024E-2,-4.7944942E-3,-1.06939845E-1,-6.154207E-3,6.641807E-3,-2.7163252E-2,7.173379E-2,1.34913E-2,1.3707711E-1,4.4950146E-2,-4.6024747E-2,2.766982E-2,-2.449992E-1,-8.749484E-2,-4.1562513E-2,4.970248E-2,2.4169805E-2,4.478313E-3,2.6199462E-2,1.3760267E-1,1.0996385E-1,-1.4823332E-1,-3.3365462E-2,3.358892E-2,3.141381E-1,1.3681498E-1,1.805759E-1,-1.5337244E-1,3.2960813E-2,1.975255E-1,-9.420501E-2,7.596467E-2],"split_indices":[0,0,0,0,4,3,4,2,4,4,4,3,0,4,4,5,2,4,4,3,3,1,2,4,4,4,1,1,0,0,2,5,1,3,2,4,5,3,3,4,3,0,2,1,2,3,2,2,4,2,5,2,4,1,2,1,5,0,2,0,3,2,2,0,0,0,0,0,0,0,0,0,0,0,0,0,0,0,0,0,0,0,0,0,0,0,0,0,0,0,0,0,0,0,0,0,0,0,0,0,0,0,0,0,0,0,0,0,0,0,0,0,0,0,0,0,0,0,0,0,0,0,0,0,0,0,0],"split_type":[0,0,0,0,0,0,0,0,0,0,0,0,0,0,0,0,0,0,0,0,0,0,0,0,0,0,0,0,0,0,0,0,0,0,0,0,0,0,0,0,0,0,0,0,0,0,0,0,0,0,0,0,0,0,0,0,0,0,0,0,0,0,0,0,0,0,0,0,0,0,0,0,0,0,0,0,0,0,0,0,0,0,0,0,0,0,0,0,0,0,0,0,0,0,0,0,0,0,0,0,0,0,0,0,0,0,0,0,0,0,0,0,0,0,0,0,0,0,0,0,0,0,0,0,0,0,0],"sum_hessian":[2.2108E4,1.36E4,8.508E3,7.339E3,6.261E3,4.85E3,3.658E3,1.238E3,6.101E3,6E3,2.61E2,3.945E3,9.05E2,3.399E3,2.59E2,9.97E2,2.41E2,5.295E3,8.06E2,5.953E3,4.7E1,8.9E1,1.72E2,1.522E3,2.423E3,8.92E2,1.3E1,3.265E3,1.34E2,1.2E1,2.47E2,1.8E2,8.17E2,5.8E1,1.83E2,5.22E3,7.5E1,6.3E1,7.43E2,7.29E2,5.224E3,6E0,4.1E1,5.4E1,3.5E1,5.8E1,1.14E2,1E3,5.22E2,1.359E3,1.064E3,1.16E2,7.76E2,8E0,5E0,3.147E3,1.18E2,1.9E1,1.15E2,8E0,4E0,2.28E2,1.9E1,7.4E1,1.06E2,1.09E2,7.08E2,4.2E1,1.6E1,9E0,1.74E2,1.62E3,3.6E3,6.7E1,8E0,4E0,5.9E1,7.05E2,3.8E1,3.13E2,4.16E2,4.92E2,4.732E3,1E0,5E0,3.4E1,7E0,3.4E1,2E1,3.3E1,2E0,2.2E1,3.6E1,2.5E1,8.9E1,7.26E2,2.74E2,2.3E1,4.99E2,6.51E2,7.08E2,1.01E2,9.63E2,2.8E1,8.8E1,8E1,6.96E2,5E0,3E0,2E0,3E0,2.449E3,6.98E2,8.6E1,3.2E1,2E0,1.7E1,5.8E1,5.7E1,4E0,4E0,2E0,2E0,2.19E2,9E0,1.4E1,5E0],"tree_param":{"num_deleted":"0","num_feature":"6","num_nodes":"127","size_leaf_vector":"1"}},{"base_weights":[-4.0925656E-6,-2.0759322E-2,3.9235204E-2,-4.6348378E-2,-6.935205E-3,3.6175743E-2,8.017882E-2,-4.2319175E-2,-1.0430639E-1,-1.8022586E-4,-3.7868325E-2,7.162436E-2,3.3365745E-2,2.1746919E-1,6.255679E-2,-4.058978E-2,-2.1066608E-1,2.9342222E-1,-1.1640945E-1,9.5396034E-2,-7.4655055E-3,-2.0061028E-1,-9.336506E-3,-9.466905E-2,1.0648796E-1,-8.441001E-2,3.4678075E-2,1.3342455E-1,5.4252905E-1,4.048319E-2,1.5579711E-1,-6.146802E-2,-3.1330872E-2,-4.550137E-3,-3.7080994E-1,-1.4714113E-1,5.0325525E-1,-1.07019536E-1,-4.6923882E-1,2.8745612E-2,2.3302868E-1,-1.10827135E-2,2.0138569E-1,-7.8524485E-2,-4.9722323E-1,9.8345056E-2,-5.2442074E-2,-2.090314E-1,1.3342041E-1,2.7164614E-1,6.465198E-2,-5.367672E-1,9.6418485E-2,4.346902E-2,1.2317009E-2,-1.3978866E-1,2.580712E-1,2.0470206E-1,-1.043512E-1,6.485322E-3,1.3043484E-1,8.21062E-2,3.2470158E-1,-1.3821484E-2,-5.224151E-2,2.397171E-2,-1.0475154E-2,-7.108732E-2,3.591118E-2,2.1036107E-2,-1.4226261E-1,-8.440401E-2,3.832133E-2,1.7261249E-1,1.05805285E-2,-4.0210076E-2,4.291343E-2,-1.9957806E-1,-3.2070737E-2,5.4592304E-2,-2.0704212E-2,3.101691E-2,1.9910729E-1,-9.902077E-3,4.7213407E-3,-2.776714E-1,8.0296695E-2,9.662597E-2,-5.3439584E-2,-7.22133E-2,-2.940295E-1,1.498718E-1,-5.791304E-3,-7.61083E-2,-7.114656E-4,-1.9758928E-1,-3.8622104E-2,1.18433796E-1,-4.088318E-2,2.1093048E-2,1.3739918E-1,1.4511298E-1,1.28604695E-2,-2.726196E-1,5.4380145E-2,6.595585E-2,-1.3690034E-1,1.2345958E-2,7.4689366E-2,1.0810664E-1,2.4323426E-3,-5.776351E-2,9.773355E-2,1.0698479E-1,-4.229293E-3,-7.673243E-2,2.977438E-2,1.831132E-1,-2.353114E-5,1.2203754E-1,2.1727523E-2,5.4110106E-2,-6.0049754E-2,1.17826946E-1,6.207099E-2],"categories":[],"categories_nodes":[],"categories_segments":[],"categories_sizes":[],"default_left":[1,0,0,0,1,0,0,1,0,0,0,0,0,0,1,0,1,0,1,0,1,0,0,0,0,0,1,0,1,0,0,0,0,0,0,0,0,1,1,0,0,0,0,0,0,1,0,0,1,0,0,1,0,1,0,0,0,0,0,0,0,0,0,0,0,0,0,0,0,0,0,0,0,0,0,0,0,0,0,0,0,0,0,0,0,0,0,0,0,0,0,0,0,0,0,0,0,0,0,0,0,0,0,0,0,0,0,0,0,0,0,0,0,0,0,0,0,0,0,0,0,0,0,0,0],"id":11,"left_children":[1,3,5,7,9,11,13,15,17,19,21,23,25,27,29,31,33,35,37,39,41,43,45,47,49,51,53,55,57,59,61,63,65,67,69,71,73,75,77,79,81,83,85,87,89,91,93,95,97,99,101,103,105,107,109,111,113,-1,115,117,119,121,123,-1,-1,-1,-1,-1,-1,-1,-1,-1,-1,-1,-1,-1,-1,-1,-1,-1,-1,-1,-1,-1,-1,-1,-1,-1,-1,-1,-1,-1,-1,-1,-1,-1,-1,-1,-1,-1,-1,-1,-1,-1,-1,-1,-1,-1,-1,-1,-1,-1,-1,-1,-1,-1,-1,-1,-1,-1,-1,-1,-1,-1,-1],"loss_changes":[1.800684E1,5.115202E0,9.5525455E-1,1.1800222E0,1.962058E0,7.0673656E-1,1.2710633E0,1.3726091E0,1.6178753E0,5.367791E0,7.8128414E0,3.0364208E0,1.022718E0,1.5667856E0,9.6513915E-1,9.060497E-1,1.5827065E0,9.9849695E-1,1.0099549E0,5.0019093E0,5.4135795E0,9.050225E0,6.6566777E0,2.4016104E0,2.9673657E0,6.0230865E0,1.2823124E0,1.7047763E0,1.156496E0,1.1704311E0,1.0935454E0,2.4934416E0,1.3017011E0,6.6367173E-1,1.2642252E0,1.8349968E-1,2.1596515E-1,2.1335654E0,4.9708736E-1,5.540026E0,9.869232E0,4.1413465E0,9.359107E0,7.200161E0,8.806105E0,1.9363358E1,1.0318048E1,2.117236E0,2.238924E0,3.231967E0,3.1377773E0,5.773476E0,3.7164469E0,2.218834E0,2.697006E0,4.5571315E-1,9.169345E-1,0E0,1.1787422E-1,1.1059484E0,1.653835E0,1.8112248E0,1.3518953E-1,0E0,0E0,0E0,0E0,0E0,0E0,0E0,0E0,0E0,0E0,0E0,0E0,0E0,0E0,0E0,0E0,0E0,0E0,0E0,0E0,0E0,0E0,0E0,0E0,0E0,0E0,0E0,0E0,0E0,0E0,0E0,0E0,0E0,0E0,0E0,0E0,0E0,0E0,0E0,0E0,0E0,0E0,0E0,0E0,0E0,0E0,0E0,0E0,0E0,0E0,0E0,0E0,0E0,0E0,0E0,0E0,0E0,0E0,0E0,0E0,0E0,0E0],"parents":[2147483647,0,0,1,1,2,2,3,3,4,4,5,5,6,6,7,7,8,8,9,9,10,10,11,11,12,12,13,13,14,14,15,15,16,16,17,17,18,18,19,19,20,20,21,21,22,22,23,23,24,24,25,25,26,26,27,27,28,28,29,29,30,30,31,31,32,32,33,33,34,34,35,35,36,36,37,37,38,38,39,39,40,40,41,41,42,42,43,43,44,44,45,45,46,46,47,47,48,48,49,49,50,50,51,51,52,52,53,53,54,54,55,55,56,56,58,58,59,59,60,60,61,61,62,62],"right_children":[2,4,6,8,10,12,14,16,18,20,22,24,26,28,30,32,34,36,38,40,42,44,46,48,50,52,54,56,58,60,62,64,66,68,70,72,74,76,78,80,82,84,86,88,90,92,94,96,98,100,102,104,106,108,110,112,114,-1,116,118,120,122,124,-1,-1,-1,-1,-1,-1,-1,-1,-1,-1,-1,-1,-1,-1,-1,-1,-1,-1,-1,-1,-1,-1,-1,-1,-1,-1,-1,-1,-1,-1,-1,-1,-1,-1,-1,-1,-1,-1,-1,-1,-1,-1,-1,-1,-1,-1,-1,-1,-1,-1,-1,-1,-1,-1,-1,-1,-1,-1,-1,-1,-1,-1],"split_conditions":[5.713628E0,3.3794243E0,8.8792715E0,6.3E1,7.7453337E0,1.1559847E-1,4E0,7.947035E0,1E0,1.623018E-1,1.1333458E0,5E0,2.5840586E-1,5.3470035E0,7.689286E0,3.1E1,6.0687156E0,6.005854E0,9.819528E0,2.1E1,7.6688185E0,5.654789E0,3.3E1,7E0,1E1,6.5343714E0,7.268664E0,3.7E1,6.7839165E0,9.614093E0,7E0,8.992904E0,3.2E1,2.194068E0,1.3127959E0,4.9179053E0,2.9784276E0,8.270876E0,3.493305E0,3.7E1,5.654789E0,6E0,2.3E1,7E0,8E0,3.4605532E0,7.9575076E0,4.414501E0,6.765716E0,6.2580647E0,5.839366E0,7.119707E0,2.2E1,7.23296E0,5.7371397E0,1E1,9.614093E0,2.0470206E-1,8.990697E0,3.1952276E0,1.1333458E0,5.6594586E0,8.179432E0,-1.3821484E-2,-5.224151E-2,2.397171E-2,-1.0475154E-2,-7.108732E-2,3.591118E-2,2.1036107E-2,-1.4226261E-1,-8.440401E-2,3.832133E-2,1.7261249E-1,1.05805285E-2,-4.0210076E-2,4.291343E-2,-1.9957806E-1,-3.2070737E-2,5.4592304E-2,-2.0704212E-2,3.101691E-2,1.9910729E-1,-9.902077E-3,4.7213407E-3,-2.776714E-1,8.0296695E-2,9.662597E-2,-5.3439584E-2,-7.22133E-2,-2.940295E-1,1.498718E-1,-5.791304E-3,-7.61083E-2,-7.114656E-4,-1.9758928E-1,-3.8622104E-2,1.18433796E-1,-4.088318E-2,2.1093048E-2,1.3739918E-1,1.4511298E-1,1.28604695E-2,-2.726196E-1,5.4380145E-2,6.595585E-2,-1.3690034E-1,1.2345958E-2,7.4689366E-2,1.0810664E-1,2.4323426E-3,-5.776351E-2,9.773355E-2,1.0698479E-1,-4.229293E-3,-7.673243E-2,2.977438E-2,1.831132E-1,-2.353114E-5,1.2203754E-1,2.1727523E-2,5.4110106E-2,-6.0049754E-2,1.17826946E-1,6.207099E-2],"split_indices":[0,0,0,3,4,2,1,2,1,2,2,1,2,2,4,3,4,4,4,1,4,0,3,5,1,0,4,3,2,0,5,4,3,0,0,2,0,4,2,3,0,5,3,1,5,0,4,4,4,4,0,4,1,4,0,5,0,0,0,4,2,2,4,0,0,0,0,0,0,0,0,0,0,0,0,0,0,0,0,0,0,0,0,0,0,0,0,0,0,0,0,0,0,0,0,0,0,0,0,0,0,0,0,0,0,0,0,0,0,0,0,0,0,0,0,0,0,0,0,0,0,0,0,0,0],"split_type":[0,0,0,0,0,0,0,0,0,0,0,0,0,0,0,0,0,0,0,0,0,0,0,0,0,0,0,0,0,0,0,0,0,0,0,0,0,0,0,0,0,0,0,0,0,0,0,0,0,0,0,0,0,0,0,0,0,0,0,0,0,0,0,0,0,0,0,0,0,0,0,0,0,0,0,0,0,0,0,0,0,0,0,0,0,0,0,0,0,0,0,0,0,0,0,0,0,0,0,0,0,0,0,0,0,0,0,0,0,0,0,0,0,0,0,0,0,0,0,0,0,0,0,0,0],"sum_hessian":[2.2108E4,1.446E4,7.648E3,5.071E3,9.389E3,7.118E3,5.3E2,4.743E3,3.28E2,7.707E3,1.682E3,5.21E2,6.597E3,5.9E1,4.71E2,4.696E3,4.7E1,9E0,3.19E2,5.45E2,7.162E3,2.5E2,1.432E3,9E1,4.31E2,7.2E1,6.525E3,4.8E1,1.1E1,3.82E2,8.9E1,1.441E3,3.255E3,2.1E1,2.6E1,3E0,6E0,3.12E2,7E0,3.68E2,1.77E2,7.041E3,1.21E2,1.78E2,7.2E1,4.09E2,1.023E3,6E1,3E1,8.6E1,3.45E2,2E1,5.2E1,4.683E3,1.842E3,1.5E1,3.3E1,9E0,2E0,2.78E2,1.04E2,6.3E1,2.6E1,1.269E3,1.72E2,1.01E2,3.154E3,7E0,1.4E1,5E0,2.1E1,2E0,1E0,5E0,1E0,2.82E2,3E1,4E0,3E0,1.43E2,2.25E2,1.37E2,4E1,3.874E3,3.167E3,6E0,1.15E2,3.5E1,1.43E2,4.8E1,2.4E1,9.2E1,3.17E2,2.03E2,8.2E2,8E0,5.2E1,1.5E1,1.5E1,4.2E1,4.4E1,1.6E1,3.29E2,1.3E1,7E0,4.3E1,9E0,4.632E3,5.1E1,2.1E1,1.821E3,1.4E1,1E0,2.4E1,9E0,1E0,1E0,2E0,2.76E2,1.7E1,8.7E1,4.7E1,1.6E1,1.5E1,1.1E1],"tree_param":{"num_deleted":"0","num_feature":"6","num_nodes":"125","size_leaf_vector":"1"}},{"base_weights":[1.4024103E-5,-2.205E-2,2.0765128E-2,-1.3713795E-2,-4.922754E-2,1.3654159E-2,4.460896E-2,-2.4908077E-2,3.6771175E-2,-2.3782165E-1,-3.1852897E-2,2.201901E-2,-5.570446E-2,1.485762E-1,3.5476558E-2,-1.755914E-2,-9.749949E-2,1.0717574E-2,1.5072875E-1,-8.036471E-2,-3.7769067E-1,-8.0524914E-2,1.5308439E-2,5.2608423E-2,1.0513225E-2,-2.8591266E-1,-1.7975807E-2,8.4129095E-2,3.9841306E-1,-4.590018E-2,5.4623015E-2,-1.9738827E-2,3.7177494E-1,-2.5816416E-2,-2.8583193E-1,-1.1260134E-1,2.3488155E-2,5.203661E-1,-7.448886E-2,-5.3206784E-1,3.0786835E-2,-1.2068193E0,-3.023075E-1,-2.2101833E-1,-4.703736E-2,4.237958E-2,-2.2436567E-1,1.0126296E-1,-1.3699136E-2,2.6020603E-3,9.162097E-2,-1.1514437E-1,-4.3341252E-1,3.8135186E-2,-1.1558997E-1,1.3964094E-1,-4.554305E-1,6.9214135E-1,5.7738587E-2,-8.225719E-2,3.0774567E-1,8.168624E-2,5.23484E-3,-1.1933207E-2,3.9259015E-4,1.6952495E-1,-9.813363E-2,2.376134E-3,-9.843744E-2,-1.5328208E-1,2.8496156E-2,8.146016E-2,-5.916627E-2,-6.8494445E-3,2.1949671E-2,2.3497932E-2,2.4770358E-1,1.7824395E-2,-1.9330944E-1,-2.1275312E-1,1.0609899E-1,-1.5979791E-2,1.7344557E-1,-5.3377724E-1,-1.1790524E-1,-1.0402669E-1,1.9413504E-1,-7.756884E-2,5.55675E-1,-4.45363E-3,-5.7776194E-2,-1.647965E-3,7.359912E-2,-1.1584314E-1,1.1980973E-1,-5.967015E-2,3.5595458E-2,1.364292E-2,-2.0284042E-2,-1.8157627E-2,5.3115017E-3,1.1192522E-1,1.36728715E-2,-3.757955E-1,-5.0381524E-3,-2.2499235E-1,-7.0153184E-2,-2.6448223E-1,1.5746325E-2,-8.1077114E-2,7.2153234E-3,3.2799393E-2,1.6954999E-1,-5.4775547E-2,-2.6392257E-1,2.7461037E-1,9.312303E-2,-1.4994586E-1,6.549896E-2,-3.647257E-2,4.4759553E-2,1.3440904E-1,-8.159968E-2,4.2314872E-2,9.568746E-3,-1.09091796E-1,4.3551745E-3],"categories":[],"categories_nodes":[],"categories_segments":[],"categories_sizes":[],"default_left":[1,1,0,1,0,0,0,1,0,0,0,0,0,0,1,1,0,0,0,0,0,1,0,1,0,0,0,0,0,0,0,0,1,1,0,0,0,0,0,0,0,1,1,0,0,0,0,0,0,0,0,0,0,0,0,1,1,0,0,0,0,0,0,0,0,0,0,0,0,0,0,0,0,0,0,0,0,0,0,0,0,0,0,0,0,0,0,0,0,0,0,0,0,0,0,0,0,0,0,0,0,0,0,0,0,0,0,0,0,0,0,0,0,0,0,0,0,0,0,0,0,0,0,0,0,0,0],"id":12,"left_children":[1,3,5,7,9,11,13,15,17,19,21,23,25,27,29,31,33,35,37,39,41,43,45,47,49,51,53,55,57,59,61,63,65,67,69,71,73,75,77,79,81,83,85,87,89,91,93,95,97,99,101,103,105,107,109,111,113,115,117,119,121,123,125,-1,-1,-1,-1,-1,-1,-1,-1,-1,-1,-1,-1,-1,-1,-1,-1,-1,-1,-1,-1,-1,-1,-1,-1,-1,-1,-1,-1,-1,-1,-1,-1,-1,-1,-1,-1,-1,-1,-1,-1,-1,-1,-1,-1,-1,-1,-1,-1,-1,-1,-1,-1,-1,-1,-1,-1,-1,-1,-1,-1,-1,-1,-1,-1],"loss_changes":[1.0123126E1,2.4271164E0,1.9312744E0,4.636218E0,8.233465E0,5.093999E0,2.479494E0,3.5800033E0,4.419233E0,4.6385956E0,5.2899203E0,2.7566645E0,8.202607E0,3.3638482E0,3.752797E0,5.1822624E0,8.322275E0,1.912943E0,2.3098688E1,5.0873384E0,6.6354322E0,5.3248262E0,7.6072507E0,6.9086027E0,3.6533542E0,3.3001385E0,4.457394E0,5.1254764E0,4.262862E0,5.9269085E0,2.6046128E0,2.5580268E0,4.7782645E0,4.5717225E0,1.4621877E1,3.7591624E0,2.532814E0,1.4106152E1,1.32396345E1,3.3882322E0,3.8034163E0,3.4933805E0,4.613206E0,1.7447977E1,4.293775E0,1.023211E1,1.2162037E1,6.469576E0,2.8967762E0,4.9483204E0,6.5407014E0,7.027054E0,4.310108E0,6.8710155E0,6.421067E0,1.9244285E0,1.6917143E0,1.6757488E0,1.9894439E0,3.8129992E0,3.6190176E0,3.7167587E0,2.3712904E0,0E0,0E0,0E0,0E0,0E0,0E0,0E0,0E0,0E0,0E0,0E0,0E0,0E0,0E0,0E0,0E0,0E0,0E0,0E0,0E0,0E0,0E0,0E0,0E0,0E0,0E0,0E0,0E0,0E0,0E0,0E0,0E0,0E0,0E0,0E0,0E0,0E0,0E0,0E0,0E0,0E0,0E0,0E0,0E0,0E0,0E0,0E0,0E0,0E0,0E0,0E0,0E0,0E0,0E0,0E0,0E0,0E0,0E0,0E0,0E0,0E0,0E0,0E0,0E0],"parents":[2147483647,0,0,1,1,2,2,3,3,4,4,5,5,6,6,7,7,8,8,9,9,10,10,11,11,12,12,13,13,14,14,15,15,16,16,17,17,18,18,19,19,20,20,21,21,22,22,23,23,24,24,25,25,26,26,27,27,28,28,29,29,30,30,31,31,32,32,33,33,34,34,35,35,36,36,37,37,38,38,39,39,40,40,41,41,42,42,43,43,44,44,45,45,46,46,47,47,48,48,49,49,50,50,51,51,52,52,53,53,54,54,55,55,56,56,57,57,58,58,59,59,60,60,61,61,62,62],"right_children":[2,4,6,8,10,12,14,16,18,20,22,24,26,28,30,32,34,36,38,40,42,44,46,48,50,52,54,56,58,60,62,64,66,68,70,72,74,76,78,80,82,84,86,88,90,92,94,96,98,100,102,104,106,108,110,112,114,116,118,120,122,124,126,-1,-1,-1,-1,-1,-1,-1,-1,-1,-1,-1,-1,-1,-1,-1,-1,-1,-1,-1,-1,-1,-1,-1,-1,-1,-1,-1,-1,-1,-1,-1,-1,-1,-1,-1,-1,-1,-1,-1,-1,-1,-1,-1,-1,-1,-1,-1,-1,-1,-1,-1,-1,-1,-1,-1,-1,-1,-1,-1,-1,-1,-1,-1,-1],"split_conditions":[4.5449934E0,4.298032E0,5.5E1,3.4589584E0,4.430211E0,5.1E1,4.451787E0,3.146552E0,4.502866E0,3.4056015E0,6.69261E0,3E0,9.188012E-1,4.2974596E0,5.147772E0,3.127847E0,4.2429724E0,1.2321968E0,3.747684E0,2E0,2.2E1,5.1219004E-1,1E1,3.215154E0,4.8E1,5.826574E-2,2.1E1,3E1,6E0,1E1,7E0,3.5330343E0,3.828646E0,8.270876E0,2E1,2.6E1,4.2E1,6.2305894E0,9E0,3.2547193E0,3.2042475E0,3.8021374E0,8.936725E0,8.602896E0,6.3183084E0,4.4808927E0,5.8E1,2E1,3.4E1,5.2136693E0,4.9753323E0,4.718013E0,6.021856E0,4.618142E0,6.190047E0,5.83815E0,3.8424242E0,6.2E1,5.2567234E0,6.334197E0,2.4E1,6E1,1E0,-1.1933207E-2,3.9259015E-4,1.6952495E-1,-9.813363E-2,2.376134E-3,-9.843744E-2,-1.5328208E-1,2.8496156E-2,8.146016E-2,-5.916627E-2,-6.8494445E-3,2.1949671E-2,2.3497932E-2,2.4770358E-1,1.7824395E-2,-1.9330944E-1,-2.1275312E-1,1.0609899E-1,-1.5979791E-2,1.7344557E-1,-5.3377724E-1,-1.1790524E-1,-1.0402669E-1,1.9413504E-1,-7.756884E-2,5.55675E-1,-4.45363E-3,-5.7776194E-2,-1.647965E-3,7.359912E-2,-1.1584314E-1,1.1980973E-1,-5.967015E-2,3.5595458E-2,1.364292E-2,-2.0284042E-2,-1.8157627E-2,5.3115017E-3,1.1192522E-1,1.36728715E-2,-3.757955E-1,-5.0381524E-3,-2.2499235E-1,-7.0153184E-2,-2.6448223E-1,1.5746325E-2,-8.1077114E-2,7.2153234E-3,3.2799393E-2,1.6954999E-1,-5.4775547E-2,-2.6392257E-1,2.7461037E-1,9.312303E-2,-1.4994586E-1,6.549896E-2,-3.647257E-2,4.4759553E-2,1.3440904E-1,-8.159968E-2,4.2314872E-2,9.568746E-3,-1.09091796E-1,4.3551745E-3],"split_indices":[0,2,3,2,2,3,4,2,0,0,4,5,2,4,4,2,0,0,2,5,3,0,5,2,3,2,1,1,5,5,5,0,0,4,1,3,3,4,5,0,0,0,4,2,4,0,3,3,3,0,0,0,4,0,0,2,2,3,0,2,1,3,1,0,0,0,0,0,0,0,0,0,0,0,0,0,0,0,0,0,0,0,0,0,0,0,0,0,0,0,0,0,0,0,0,0,0,0,0,0,0,0,0,0,0,0,0,0,0,0,0,0,0,0,0,0,0,0,0,0,0,0,0,0,0,0,0],"split_type":[0,0,0,0,0,0,0,0,0,0,0,0,0,0,0,0,0,0,0,0,0,0,0,0,0,0,0,0,0,0,0,0,0,0,0,0,0,0,0,0,0,0,0,0,0,0,0,0,0,0,0,0,0,0,0,0,0,0,0,0,0,0,0,0,0,0,0,0,0,0,0,0,0,0,0,0,0,0,0,0,0,0,0,0,0,0,0,0,0,0,0,0,0,0,0,0,0,0,0,0,0,0,0,0,0,0,0,0,0,0,0,0,0,0,0,0,0,0,0,0,0,0,0,0,0,0,0],"sum_hessian":[2.2108E4,1.0715E4,1.1393E4,8.201E3,2.514E3,8.777E3,2.616E3,6.713E3,1.488E3,2.11E2,2.303E3,7.833E3,9.44E2,2.1E2,2.406E3,6.097E3,6.16E2,1.212E3,2.76E2,1E2,1.11E2,1.133E3,1.17E3,2.14E3,5.693E3,1.32E2,8.12E2,1.68E2,4.2E1,4.58E2,1.948E3,6.064E3,3.3E1,4.47E2,1.69E2,1.13E2,1.099E3,1.04E2,1.72E2,1.9E1,8.1E1,8E0,1.03E2,2.17E2,9.16E2,1.052E3,1.18E2,1.234E3,9.06E2,5.188E3,5.05E2,6.2E1,7E1,5.16E2,2.96E2,1.53E2,1.5E1,2.2E1,2E1,4.16E2,4.2E1,1.258E3,6.9E2,3.106E3,2.958E3,2.6E1,7E0,4.03E2,4.4E1,1.06E2,6.3E1,2E1,9.3E1,5.69E2,5.3E2,4.3E1,6.1E1,1.4E2,3.2E1,1.6E1,3E0,7.1E1,1E1,4E0,4E0,9.9E1,4E0,2.14E2,3E0,7.51E2,1.65E2,8.52E2,2E2,9.4E1,2.4E1,6.7E1,1.167E3,4.32E2,4.74E2,1.001E3,4.187E3,7E1,4.35E2,4E0,5.8E1,2.6E1,4.4E1,7E0,5.09E2,1.4E2,1.56E2,1.44E2,9E0,1E1,5E0,1.3E1,9E0,4E0,1.6E1,3.56E2,6E1,3.4E1,8E0,5.73E2,6.85E2,1.6E1,6.74E2],"tree_param":{"num_deleted":"0","num_feature":"6","num_nodes":"127","size_leaf_vector":"1"}},{"base_weights":[-2.5822568E-5,-1.5439379E-2,1.4470552E-2,-2.6800692E-2,4.3118875E-3,5.1849432E-2,1.1325523E-2,-5.3585223E-3,-7.3361196E-2,-1.339303E-2,7.7208854E-2,1.5071253E-1,2.2534357E-2,-2.2124955E-2,1.9183798E-2,-3.3474553E-2,1.5017699E-2,-1.3555127E-1,-2.0634515E-2,-1.1036067E-1,1.4017391E-3,-2.9917157E-1,1.13174915E-1,-9.972206E-2,1.9497277E-1,-1.0520798E-1,6.310266E-2,-1.4420396E-1,-1.5873729E-3,1.0739249E-2,4.4784375E-2,-1.1946555E-2,-2.3850504E-1,-5.349262E-2,5.758619E-2,-3.8475192E-1,-7.813746E-2,9.089094E-2,-5.288231E-2,-5.1298693E-2,-2.9955673E-1,4.970582E-1,-2.0661824E-3,4.040421E-1,-6.759433E-1,1.1648892E0,8.5251115E-2,2.7850887E-1,-3.8836154E-1,1.1526165E-1,2.941439E-1,-2.622117E-1,1.342705E-1,2.0708035E-1,-1.3956522E-2,-1.24220006E-1,-7.499045E-1,2.5923982E-2,-7.839654E-2,-1.6071789E-2,2.052176E-2,3.5740244E-1,4.101809E-2,-3.0423673E-2,7.853837E-3,-4.235457E-2,-1.7706151E-1,-2.4906134E-2,4.3257963E-2,5.5388114E-3,5.289987E-2,-7.688654E-2,-3.4666717E-1,4.993867E-2,-3.3980366E-2,1.1589879E-2,1.9705407E-1,-4.390196E-3,-7.881902E-2,2.574008E-2,-4.4559978E-2,-4.7546126E-2,-2.6555783E-1,-3.4232765E-2,1.856352E-1,-1.0504853E-2,1.06766615E-2,3.6712003E-1,-2.0277977E-1,-2.4184278E-1,4.1164818E-1,4.1817638E-1,4.439056E-3,1.7914461E-2,2.261866E-1,-1.8506692E-1,1.7363681E-1,-5.8600087E-2,-2.5535023E-1,5.346736E-2,-6.4388074E-2,5.864562E-2,1.2931556E-1,-1.1609083E-1,1.2536591E-2,1.391725E-1,-8.960858E-3,1.18155584E-1,2.3156947E-2,-1.8136343E-2,4.6012014E-2,2.5824478E-2,-5.1093604E-2,-2.9914436E-1,2.3089457E-2,6.304575E-3,1.0378572E-1,1.641456E-2,-4.360659E-2,-1.2239995E-2,2.9994695E-2,2.9596876E-2,3.112824E-3,-5.2115E-2,1.313172E-1,7.90682E-3,2.3802813E-2],"categories":[],"categories_nodes":[],"categories_segments":[],"categories_sizes":[],"default_left":[1,0,0,0,0,0,0,1,0,0,0,0,0,0,0,1,0,1,1,0,0,1,0,1,0,0,0,0,0,0,0,0,0,0,0,0,0,1,0,0,0,0,0,0,0,0,1,0,0,0,0,1,0,0,1,0,0,0,0,0,0,0,0,0,0,0,0,0,0,0,0,0,0,0,0,0,0,0,0,0,0,0,0,0,0,0,0,0,0,0,0,0,0,0,0,0,0,0,0,0,0,0,0,0,0,0,0,0,0,0,0,0,0,0,0,0,0,0,0,0,0,0,0,0,0,0,0],"id":13,"left_children":[1,3,5,7,9,11,13,15,17,19,21,23,25,27,29,31,33,35,37,39,41,43,45,47,49,51,53,55,57,59,61,63,65,67,69,71,73,75,77,79,81,83,85,87,89,91,93,95,97,99,101,103,105,107,109,111,113,115,117,119,121,123,125,-1,-1,-1,-1,-1,-1,-1,-1,-1,-1,-1,-1,-1,-1,-1,-1,-1,-1,-1,-1,-1,-1,-1,-1,-1,-1,-1,-1,-1,-1,-1,-1,-1,-1,-1,-1,-1,-1,-1,-1,-1,-1,-1,-1,-1,-1,-1,-1,-1,-1,-1,-1,-1,-1,-1,-1,-1,-1,-1,-1,-1,-1,-1,-1],"loss_changes":[4.940274E0,2.4047902E0,1.3388648E0,6.7914376E0,5.0525784E0,2.5585942E0,2.7633781E0,2.6696367E0,7.0308228E0,4.5191884E0,1.0389605E1,2.2584696E0,3.546143E0,5.0141864E0,1.8396883E0,8.639559E0,7.8831415E0,1.4048573E1,4.1838813E0,4.644313E0,4.7004933E0,1.802483E1,2.0428825E1,3.492506E0,1.3257637E0,6.239045E0,5.761093E0,3.3928833E0,3.6218138E0,1.6794417E0,2.4708495E0,6.0503035E0,6.283185E0,6.059343E0,7.741268E0,1.7923574E1,6.90176E0,7.6938906E0,7.2359004E0,4.265256E0,8.03864E0,1.4841099E0,3.3710792E0,2.2073063E1,1.2839266E1,4.7207165E0,1.1600946E1,4.1212397E0,1.4417589E0,2.0530126E0,9.4227743E-1,3.8088102E0,3.5849023E0,4.360633E0,2.646861E0,2.728763E0,1.9166875E0,1.9752485E0,4.0366282E0,4.9171915E0,3.7176614E0,1.1425474E0,1.1706285E0,0E0,0E0,0E0,0E0,0E0,0E0,0E0,0E0,0E0,0E0,0E0,0E0,0E0,0E0,0E0,0E0,0E0,0E0,0E0,0E0,0E0,0E0,0E0,0E0,0E0,0E0,0E0,0E0,0E0,0E0,0E0,0E0,0E0,0E0,0E0,0E0,0E0,0E0,0E0,0E0,0E0,0E0,0E0,0E0,0E0,0E0,0E0,0E0,0E0,0E0,0E0,0E0,0E0,0E0,0E0,0E0,0E0,0E0,0E0,0E0,0E0,0E0,0E0,0E0],"parents":[2147483647,0,0,1,1,2,2,3,3,4,4,5,5,6,6,7,7,8,8,9,9,10,10,11,11,12,12,13,13,14,14,15,15,16,16,17,17,18,18,19,19,20,20,21,21,22,22,23,23,24,24,25,25,26,26,27,27,28,28,29,29,30,30,31,31,32,32,33,33,34,34,35,35,36,36,37,37,38,38,39,39,40,40,41,41,42,42,43,43,44,44,45,45,46,46,47,47,48,48,49,49,50,50,51,51,52,52,53,53,54,54,55,55,56,56,57,57,58,58,59,59,60,60,61,61,62,62],"right_children":[2,4,6,8,10,12,14,16,18,20,22,24,26,28,30,32,34,36,38,40,42,44,46,48,50,52,54,56,58,60,62,64,66,68,70,72,74,76,78,80,82,84,86,88,90,92,94,96,98,100,102,104,106,108,110,112,114,116,118,120,122,124,126,-1,-1,-1,-1,-1,-1,-1,-1,-1,-1,-1,-1,-1,-1,-1,-1,-1,-1,-1,-1,-1,-1,-1,-1,-1,-1,-1,-1,-1,-1,-1,-1,-1,-1,-1,-1,-1,-1,-1,-1,-1,-1,-1,-1,-1,-1,-1,-1,-1,-1,-1,-1,-1,-1,-1,-1,-1,-1,-1,-1,-1,-1,-1,-1],"split_conditions":[4.5449934E0,7E0,2.0756286E-1,5.1E1,4.5236554E0,2.9E1,1.7986808E0,2.2402644E0,5.8E1,4.8879037E0,3.0380338E-1,5E0,3.8E1,2.5E1,7.4217906E0,2.0162323E0,3E1,3.3191982E-1,8.840968E-1,4.662997E0,4.934194E0,5.1884484E0,6.0421175E-1,6.5441837E0,6.930546E0,6.70907E0,5.8607645E0,1.7570833E0,1.4742243E0,3.0189536E0,1.8437976E0,1E1,4.4568257E0,2.8E1,4.367127E0,8.787658E0,5.0595245E0,6.380126E-1,6E0,3.7E1,3.9572413E0,1.6182687E0,4.3E1,4.3E1,2.8E1,8.1262045E0,9.125529E0,2E0,2.5E1,6.5025163E0,6E0,7.091655E0,7.3568726E0,5E1,7.4521627E0,5.1694026E0,1.8E1,9.614093E0,6.0861115E0,8.326275E0,3.382355E0,2.7E1,5.3E1,-3.0423673E-2,7.853837E-3,-4.235457E-2,-1.7706151E-1,-2.4906134E-2,4.3257963E-2,5.5388114E-3,5.289987E-2,-7.688654E-2,-3.4666717E-1,4.993867E-2,-3.3980366E-2,1.1589879E-2,1.9705407E-1,-4.390196E-3,-7.881902E-2,2.574008E-2,-4.4559978E-2,-4.7546126E-2,-2.6555783E-1,-3.4232765E-2,1.856352E-1,-1.0504853E-2,1.06766615E-2,3.6712003E-1,-2.0277977E-1,-2.4184278E-1,4.1164818E-1,4.1817638E-1,4.439056E-3,1.7914461E-2,2.261866E-1,-1.8506692E-1,1.7363681E-1,-5.8600087E-2,-2.5535023E-1,5.346736E-2,-6.4388074E-2,5.864562E-2,1.2931556E-1,-1.1609083E-1,1.2536591E-2,1.391725E-1,-8.960858E-3,1.18155584E-1,2.3156947E-2,-1.8136343E-2,4.6012014E-2,2.5824478E-2,-5.1093604E-2,-2.9914436E-1,2.3089457E-2,6.304575E-3,1.0378572E-1,1.641456E-2,-4.360659E-2,-1.2239995E-2,2.9994695E-2,2.9596876E-2,3.112824E-3,-5.2115E-2,1.313172E-1,7.90682E-3,2.3802813E-2],"split_indices":[0,5,2,3,0,3,2,2,3,4,2,1,3,3,0,2,3,0,2,4,4,4,2,4,4,0,0,2,2,2,2,1,0,1,0,4,4,2,5,3,0,2,3,3,1,4,4,5,3,4,5,4,0,3,4,4,1,0,4,4,2,3,3,0,0,0,0,0,0,0,0,0,0,0,0,0,0,0,0,0,0,0,0,0,0,0,0,0,0,0,0,0,0,0,0,0,0,0,0,0,0,0,0,0,0,0,0,0,0,0,0,0,0,0,0,0,0,0,0,0,0,0,0,0,0,0,0],"split_type":[0,0,0,0,0,0,0,0,0,0,0,0,0,0,0,0,0,0,0,0,0,0,0,0,0,0,0,0,0,0,0,0,0,0,0,0,0,0,0,0,0,0,0,0,0,0,0,0,0,0,0,0,0,0,0,0,0,0,0,0,0,0,0,0,0,0,0,0,0,0,0,0,0,0,0,0,0,0,0,0,0,0,0,0,0,0,0,0,0,0,0,0,0,0,0,0,0,0,0,0,0,0,0,0,0,0,0,0,0,0,0,0,0,0,0,0,0,0,0,0,0,0,0,0,0,0,0],"sum_hessian":[2.2108E4,1.0715E4,1.1393E4,6.802E3,3.913E3,8.83E2,1.051E4,4.658E3,2.144E3,3.149E3,7.64E2,2.01E2,6.82E2,1.999E3,8.511E3,1.957E3,2.701E3,9.83E2,1.161E3,4.16E2,2.733E3,6.6E1,6.98E2,3E1,1.71E2,1.64E2,5.18E2,2.87E2,1.712E3,6.401E3,2.11E3,1.772E3,1.85E2,1.035E3,1.666E3,1.83E2,8E2,2.6E2,9.01E2,3.18E2,9.8E1,1.8E1,2.715E3,2.3E1,4.3E1,1.7E1,6.81E2,1.3E1,1.7E1,9.6E1,7.5E1,9.9E1,6.5E1,1.8E2,3.38E2,2.79E2,8E0,1.261E3,4.51E2,1.711E3,4.69E3,2.4E1,2.086E3,5.29E2,1.243E3,1.46E2,3.9E1,9.01E2,1.34E2,1.254E3,4.12E2,1.58E2,2.5E1,1E2,7E2,2.39E2,2.1E1,7.63E2,1.38E2,1.32E2,1.86E2,8E1,1.8E1,3E0,1.5E1,1.448E3,1.267E3,1.3E1,1E1,4.1E1,2E0,1.4E1,3E0,6.57E2,2.4E1,3E0,1E1,1.3E1,4E0,8.1E1,1.5E1,4.5E1,3E1,7E1,2.9E1,2.1E1,4.4E1,7.3E1,1.07E2,2.65E2,7.3E1,5E1,2.29E2,6E0,2E0,1.243E3,1.8E1,1.51E2,3E2,1.411E3,3E2,5.38E2,4.152E3,3E0,2.1E1,1.51E3,5.76E2],"tree_param":{"num_deleted":"0","num_feature":"6","num_nodes":"127","size_leaf_vector":"1"}},{"base_weights":[-1.6202521E-6,-1.1962654E-2,9.483981E-3,-5.613733E-3,-5.3331245E-2,7.582008E-4,2.1178933E-2,-8.265765E-3,2.9988283E-1,7.874041E-2,-8.5133724E-2,4.9892515E-3,-1.4371175E-1,2.5697669E-2,-4.996875E-2,-2.0092316E-2,1.7965818E-2,1.385511E-1,9.1446215E-1,4.1496515E-1,-3.730905E-2,-3.0984163E-2,-2.9877615E-1,2.9456005E-1,3.2911533E-3,7.456805E-2,-2.3063199E-1,2.0552365E-2,1.6865952E-1,-1.8716106E-1,2.6645532E-2,-1.5375193E-2,-1.4185828E-1,-9.261213E-3,9.3413375E-2,1.8040748E-1,-2.1087113E-1,1.3958821E0,-3.275543E-1,-6.110812E-1,7.6247174E-1,2.4310764E-2,-6.621866E-1,-1.3619755E-1,2.6726836E-2,5.0030595E-1,-3.6655992E-1,-1.5316257E-1,4.9191126E-1,-6.527327E-2,7.855171E-3,-1.9133787E-1,3.123357E-1,-1.9102083E-1,-1.1098517E0,-1.7401834E-1,